tree
version=v4
num_class=1
num_tree_per_iteration=1
label_index=0
max_feature_idx=16
objective=regression
feature_names=momentum_1m momentum_3m momentum_6m rsi_14 macd_signal pe_ratio pb_ratio dividend_yield roe roa debt_to_equity profit_margin sentiment_score turnover_score flow_score volume_ratio price_strength
feature_infos=[-3.4596319710774948:7.5670245646984968] [-2.844689163417756:4.169779290108222] [-2.9276297493528753:3.9729838412031748] [-2.8535287779232159:2.9791248756539792] [-4.6678198887321658:6.2739237822636307] none none none none none none none none none none [-2.16630824684685:7.0599483098450282] [-4.4791387790875392:1.5842088861400734]
tree_sizes=4542 4569 4674 4635 4644 4610 4618 4621 4591 4585 4612 4650 4603 4614 4577 4613 4617

Tree=0
num_leaves=50
num_cat=0
split_feature=16 1 16 1 4 2 4 2 16 2 16 3 4 15 16 1 16 1 2 1 16 4 3 16 3 15 16 3 2 16 2 2 16 1 2 1 3 4 1 1 16 4 2 2 4 1 1 16 2
split_gain=2.42361 1.28625 1.0172 0.70608 0.697044 0.697624 0.709634 0.648735 0.447335 0.525986 0.417828 0.368264 0.366339 0.232124 0.327929 0.226192 0.225648 0.167747 0.175642 0.235524 0.356336 0.328974 0.295663 0.190334 0.144048 0.126506 0.125006 0.12297 0.119182 0.116225 0.228201 0.115177 0.128695 0.103851 0.0981072 0.1421 0.0902817 0.144997 0.0866858 0.0863175 0.0862373 0.0877756 0.0798497 0.0797084 0.0774733 0.0765809 0.0744047 0.0674118 0.0637347
threshold=-2.3541139918384766 1.005638385661054 -3.9974000744392884 -0.86772607925607437 0.97994178818636157 -2.0149131661555253 -0.22749695269245471 0.74836514803481846 -0.34124353726541268 1.6368794635598989 -1.2623526835449861 0.37930233803323771 -1.8156133190373851 1.366747254330472 -1.9450438717887184 0.55060423028578576 1.2398564809990276 -1.1669098467982908 -0.46120168262494088 -0.56685659549600576 -0.81145955321315133 -0.44086096601495589 0.28141551042414564 -0.79733327963445011 -0.79801727485768936 1.1774457801784763 -0.96981850254066926 -0.93434183811398197 0.12404363428068318 -0.51337072668490158 -0.74658993523917239 2.8879989706457372 0.56081868094938236 -0.70335024035657001 -0.55709004786964866 -1.0564983853846612 -1.2712008967033948 -0.4905500857483634 0.56885343866591109 1.5658849315097421 -0.75254518515964486 1.3579827304952869 -1.0529203903319864 -0.70990810731529475 0.38945786389325826 0.28210087356090435 0.18722023536740481 -0.15349337942980038 -1.0724027146177693
decision_type=2 2 2 2 2 2 2 2 2 2 2 2 2 2 2 2 2 2 2 2 2 2 2 2 2 2 2 2 2 2 2 2 2 2 2 2 2 2 2 2 2 2 2 2 2 2 2 2 2
left_child=2 7 -1 4 5 -4 -7 10 39 12 13 -5 -10 34 -15 17 -9 24 19 20 21 -19 23 -21 -12 46 -23 -14 -29 42 47 32 -11 -20 43 -36 -22 -38 -18 -3 -35 45 -24 44 -2 -42 -25 -31 -26
right_child=1 8 3 11 -6 6 -8 16 9 31 15 -13 27 14 -16 -17 38 18 33 22 36 26 29 25 48 -27 -28 28 -30 30 -32 -33 -34 40 35 -37 37 -39 -40 -41 41 -43 -44 -45 -46 -47 -48 -49 -50
leaf_value=0.0028689820070275083 0.0028367559788889272 0.0017658043396270072 0.011556956987144248 0.002487916214498038 0.003398361985875981 0.0028028956161722015 0.010213665848842165 0.0024269374684985964 0.0056407983992066285 -0.0003692656432955797 0.0037000730836844365 0.0072017849877682328 0.0049841501122664606 0.0076723497803652743 0.003264704975037841 0.0030465522487823807 0.0053568330259362393 0.008912486127211388 0.0031400470645475791 0.0018703614019496477 0.0031207073740713424 0.0038586416618541092 0.0018351909880327936 0.003153944854437405 0.0036764008178195411 0.0053711315282001983 0.0066625192783173288 0.0018485749581586867 0.0028944308399876935 0.005089149888208697 0.0038128734124319766 -0.00069009221054450696 0.0019260922563742752 0.0024474670183544556 0.005120325590372168 0.0028238607844067341 0.006279825129815347 0.0040981135340196189 0.0033218851761263098 0.00037898520143392995 0.0037401006721636569 0.0049221221073150641 0.0042464290409163462 0.0013677612465799512 0.0019336792206610617 0.0033197548160327681 0.0043952604739482398 0.0069996968506824677 0.0021941668214127451
leaf_weight=60 363 85 64 33 21 22 23 743 42 29 146 26 21 20 57 601 30 29 386 77 62 41 20 288 28 30 25 125 539 44 87 28 140 50 32 98 32 272 50 110 2036 52 32 56 121 465 51 41 152
leaf_count=60 363 85 64 33 21 22 23 743 42 29 146 26 21 20 57 601 30 29 386 77 62 41 20 288 28 30 25 125 539 44 87 28 140 50 32 98 32 272 50 110 2036 52 32 56 121 465 51 41 152
internal_value=0.00331474 0.00322058 0.00622696 0.00730852 0.00855027 0.00951436 0.00653099 0.00337923 0.00227981 0.00256033 0.00349161 0.0045175 0.0029381 0.00283087 0.0043748 0.00359001 0.00259181 0.00366415 0.00371631 0.00403637 0.0045608 0.00620934 0.00367092 0.00323051 0.00301428 0.00350652 0.00496955 0.00276769 0.00269284 0.00456086 0.00493641 0.00118236 0.00151252 0.00359417 0.00264883 0.00336703 0.00412404 0.00433853 0.00408485 0.000967012 0.00366267 0.00368768 0.00332189 0.0024704 0.00260455 0.00366075 0.00333211 0.0060492 0.00244146
internal_weight=7985 7736 249 189 130 109 45 6617 1119 924 5794 59 727 747 77 5047 823 4446 4120 1131 461 95 670 446 326 369 66 685 664 224 172 197 169 2989 670 130 366 304 80 195 2603 2553 52 540 484 2501 339 85 180
internal_count=7985 7736 249 189 130 109 45 6617 1119 924 5794 59 727 747 77 5047 823 4446 4120 1131 461 95 670 446 326 369 66 685 664 224 172 197 169 2989 670 130 366 304 80 195 2603 2553 52 540 484 2501 339 85 180
is_linear=0
shrinkage=1


Tree=1
num_leaves=50
num_cat=0
split_feature=2 1 4 2 4 1 2 2 4 1 0 0 15 2 2 1 2 0 1 0 15 1 2 1 3 0 15 1 0 1 0 2 3 2 1 3 2 2 1 1 2 3 4 3 3 3 1 0 3
split_gain=1.46174 1.236 0.667394 0.650354 0.381216 0.341312 0.320917 0.309352 0.340499 0.28595 0.361064 0.21478 0.186207 0.54247 0.143444 0.185096 0.209293 0.174943 0.287661 0.129302 0.208183 0.149771 0.127981 0.121976 0.121246 0.189032 0.111166 0.111002 0.183124 0.110673 0.116717 0.107065 0.102369 0.0946722 0.127972 0.217542 0.0907097 0.0896325 0.0816676 0.0797939 0.105105 0.232651 0.0782862 0.0744573 0.0737833 0.0725587 0.0718304 0.166804 0.094457
threshold=-1.9484551604827154 1.005638385661054 0.86361111582419325 0.74836514803481846 -0.64395858058600453 -2.1101851399292655 1.6368794635598989 0.14175083730883545 -1.8156133190373851 -1.805499041227896 -1.1489992783687211 -0.33236790907237546 0.93298220604712656 -1.6618083075834431 -1.280182751067259 -1.1669098467982908 -0.97138837963677738 -0.30329075687898949 -0.81670718452956548 0.20944662889530727 -0.3246865745751224 -0.52288689955727363 -0.22790381473167742 1.5189140129041174 -0.29394629343211359 -1.2036486808379998 -0.70590702397995642 0.35003899847754438 0.25881018735504085 -0.90690696071276067 0.70743671104990569 2.8879989706457372 -1.5011770340654356 1.6951990781392066 0.30505476149518046 0.41560685238017353 0.76238415784797131 -0.52567522925548194 2.4092823738227476 -1.1224808909810211 -0.59752845330040238 -0.7060860080160869 1.7903931604945804 -0.20034648201425237 -0.030914349962145728 0.51126491927725615 -0.31855097639293201 0.69412556641941825 0.075415838909673211
decision_type=2 2 2 2 2 2 2 2 2 2 2 2 2 2 2 2 2 2 2 2 2 2 2 2 2 2 2 2 2 2 2 2 2 2 2 2 2 2 2 2 2 2 2 2 2 2 2 2 2
left_child=2 3 4 12 5 -1 7 23 36 -6 -11 -4 14 -14 17 22 19 18 24 21 -21 26 43 -3 25 -2 -17 28 -18 -19 -31 42 -7 34 -5 -36 -9 -29 -10 -15 41 -41 -8 -16 -23 -45 48 -48 -43
right_child=1 6 11 33 9 32 31 8 38 10 -12 -13 13 39 15 16 27 29 -20 20 -22 44 -24 -25 -26 -27 -28 37 -30 30 -32 -33 -34 -35 35 -37 -38 -39 -40 40 -42 46 -44 45 -46 -47 47 -49 -50
leaf_value=0.0047665608785618313 -0.00013751639289709709 -0.0010916607844588119 0.0010815137997455151 -0.00085957744354597516 0.0018782299312596741 0.0019451063069319382 -0.0020015461512747018 0.003376818522038054 -0.00045447592463296397 0.00276027573179875 0.0079436579302080666 -0.0029779902199433307 0.0045707059881195077 -0.00034794844793874317 -0.00049253363091470077 0.0028580998258543348 0.00013924735343829651 -0.002735452711156855 -0.0016143546703178563 0.0041899280706039384 0.00032553153923423642 -0.0011095428042066325 0.00036711776165422811 -0.0024833273764454764 -0.00075267273504591586 0.0019190284522623466 0.00074606705143861183 0.00068022185201139791 0.00071934242820407483 -0.0015487837192421597 0.00072601107716486102 -0.0038920464056454514 -0.00046765172505171639 -0.0016507388263790296 -0.0010558699217876446 0.00079302197399448368 0.00051653651365740605 -0.00023729609033132303 -0.0015831196783643855 -0.0003274135910727691 0.00033926648094278572 0.0038128880914539837 0 -0.0025187161079256166 0.0009825715489720846 -0.00051769370373606113 0.0001459575145823245 0.0032140550719298357 0.0010366006355260696
leaf_weight=26 70 167 25 501 24 28 156 24 540 22 35 21 30 94 170 32 2469 38 73 28 26 47 105 98 45 87 98 108 618 55 30 28 33 89 101 132 22 780 68 60 534 33 21 42 21 34 50 25 22
leaf_count=26 70 167 25 501 24 28 156 24 540 22 35 21 30 94 170 32 2469 38 73 28 26 47 105 98 45 87 98 108 618 55 30 28 33 89 101 132 22 780 68 60 534 33 21 42 21 34 50 25 22
internal_value=-6.92042e-06 -7.46672e-05 0.00243805 8.05035e-05 0.00331752 0.00187813 -0.000994894 -0.000750198 -0.000393634 0.00482232 0.00600393 -0.000709102 0.000192462 0.000604247 0.000121673 0.000169636 0.000225095 -0.000422389 0 0.00106561 0.00238879 0.000688576 -0.000489568 -0.00161837 0.000581702 0.000983498 0.00129081 0.000171029 0.00025637 -0.00136235 -0.000710753 -0.00207632 0.000592115 -0.000708061 -0.000589463 0 0.00207802 -0.000122264 -0.000585879 0.00045457 0.000562941 0.00117529 -0.00177011 -0.000867417 -0.000418902 -0.0016648 0.00189163 0.00121152 0.00276072
internal_weight=7985 7771 214 6647 168 87 1124 919 654 81 57 46 5824 848 4976 4578 4227 398 275 252 54 198 351 265 202 157 130 3975 3087 123 85 205 61 823 734 233 46 888 608 818 724 190 177 246 68 76 130 75 55
internal_count=7985 7771 214 6647 168 87 1124 919 654 81 57 46 5824 848 4976 4578 4227 398 275 252 54 198 351 265 202 157 130 3975 3087 123 85 205 61 823 734 233 46 888 608 818 724 190 177 246 68 76 130 75 55
is_linear=0
shrinkage=0.03


Tree=2
num_leaves=50
num_cat=0
split_feature=16 1 16 1 4 0 16 16 4 1 16 4 15 16 16 0 1 3 4 1 1 3 16 3 1 16 16 0 0 3 1 3 16 16 4 4 4 0 16 15 1 16 1 1 16 1 0 1 16
split_gain=2.19482 1.14645 0.949741 0.640136 0.62981 0.438254 0.379004 0.371322 0.397394 0.234535 0.303597 0.239198 0.209929 0.34717 0.109963 0.109096 0.101924 0.136603 0.0929246 0.0857716 0.108307 0.0861829 0.162908 0.0964877 0.0785547 0.333271 0.261283 0.491626 0.233717 0.124169 0.114945 0.110837 0.142741 0.134689 0.109352 0.101041 0.0863694 0.0838061 0.0860349 0.0790197 0.0639554 0.111767 0.0633828 0.0625576 0.0645457 0.0621096 0.0643549 0.0600936 0.0572333
threshold=-2.3541139918384766 0.64322572459817295 -3.9974000744392884 -0.86772607925607437 0.97994178818636157 0.72661947394128668 -1.2623526835449861 -2.8254403235436958 -0.22749695269245471 1.6720691000667036 0.2201246472728707 -1.2941086899483194 1.366747254330472 -1.7791286846376382 0.47753792740687062 -0.81688646830335332 -1.1669098467982908 -0.79801727485768936 -2.2525150914277554 -0.70335024035657001 -0.29189952742788977 -0.20808150193713812 -1.4706969401724197 -2.0186245535010277 -0.56685659549600576 -0.75254518515964486 -0.81145955321315133 -0.67337296552063519 0.2869735972519305 -1.2928643808699338 -0.74577756682448226 0.28141551042414564 0.46840830422284119 1.0793081735252097 0.62204838301094523 0.30924229377586848 -0.4014849459455479 0.5057661259869346 -0.41223842403114602 1.7587717478268141 1.0920518116210036 1.0000000180025095e-35 0.18722023536740481 -1.526707961649157 -1.0550577663015337 0.26272300146663241 0.29479212381684355 -0.40447775145246867 -1.5626740192024189
decision_type=2 2 2 2 2 2 2 2 2 2 2 2 2 2 2 2 2 2 2 2 2 2 2 2 2 2 2 2 2 2 2 2 2 2 2 2 2 2 2 2 2 2 2 2 2 2 2 2 2
left_child=2 6 -1 4 7 -5 12 -4 -9 18 -11 -12 19 -14 -13 -10 17 43 -3 21 48 23 -23 -2 26 28 27 30 42 -28 36 45 39 -34 -35 -29 -18 38 -31 -33 -20 -42 47 44 -8 46 -27 -26 -21
right_child=1 9 3 5 -6 -7 16 8 15 10 11 14 13 -15 -16 -17 24 -19 40 20 -22 22 -24 -25 25 31 29 35 -30 37 -32 32 33 34 -36 -37 -38 -39 -40 -41 41 -43 -44 -45 -46 -47 -48 -49 -50
leaf_value=-0.00047896891510030394 -0.0016193247387587672 0.0010236353761257477 0.0089427373348975308 -0.00063657576839923086 8.7795218020253823e-05 0.0047662930057119964 0.0023979993290328358 0.0025185245269923433 0.0087213417175990415 -0.0025475297218736917 0.0013554806744782472 0.00029299470005688939 0.0035295535571220299 -0.00060041972952094044 -0.0013777811835006025 0.0049340506732019019 0.0050839462988600832 -0.00085640204163133318 -0.00041653508102629949 -0.00099735382476747944 -0.00054298886469407871 -0.0015642017017602158 0.0010947310795845209 4.9791894277883751e-05 -0.00077154429913898798 0.00010775005075897832 -0.0005436810224853768 -0.0013540080648265188 0.00030975468749636667 0.0011161319822488762 0.0011102204369072102 0.0009230676067868229 -1.9147587243535464e-05 0.0010963851147001674 -2.9782636189666293e-05 0.00084528447744049065 0.0024406415691454906 -0.00071006149507184496 0.00031502479227283182 -0.00042967181028726763 -0.0018006407626809595 -0.00063976725968807504 -0.00073498602222623363 -3.9833747756514473e-05 3.9592452600397376e-05 -0.00026138932693281302 0.00088072936827854429 -0.0028204513698420375 -0.0025281940994299522
leaf_weight=60 35 31 29 39 21 20 23 40 20 138 38 38 29 47 248 20 32 187 737 48 125 112 24 255 22 1573 144 34 69 160 21 490 719 220 112 41 27 54 576 39 97 411 40 100 24 388 105 62 61
leaf_count=60 35 31 29 39 21 20 23 40 20 138 38 38 29 47 248 20 32 187 737 48 125 112 24 255 22 1573 144 34 69 160 21 490 719 220 112 41 27 54 576 39 97 411 40 100 24 388 105 62 61
internal_value=-6.66378e-06 -9.62875e-05 0.00276467 0.00380997 0.00499272 0.00114911 9.9863e-05 0.00590926 0.00476237 -0.000774914 -0.00135865 -0.000842396 -0.000536671 0.000938637 -0.00114528 0.00691954 0.000189474 -0.000313895 -0.000561119 -0.000711216 -0.00118058 -0.00044614 -0.00107248 -0.000141801 0.000224205 0.000159192 0.000450602 0.00159466 -0.00105267 0.000257381 0.00323048 0.000224191 0.000413773 0.000207598 0.000707545 -0.000112257 0.00393124 0.000407245 0.000493382 0.000817606 -0.000603067 -0.000867645 -0.0018346 0.000355952 0.00126004 7.77412e-05 0.000157956 -0.00232106 -0.00188309
internal_weight=7985 7736 249 189 130 59 5998 109 80 1738 462 324 736 76 286 40 5262 334 1276 660 234 426 136 290 4928 3839 1089 155 193 934 80 3646 1580 1051 332 75 59 790 736 529 1245 508 124 147 47 2066 1678 84 109
internal_count=7985 7736 249 189 130 59 5998 109 80 1738 462 324 736 76 286 40 5262 334 1276 660 234 426 136 290 4928 3839 1089 155 193 934 80 3646 1580 1051 332 75 59 790 736 529 1245 508 124 147 47 2066 1678 84 109
is_linear=0
shrinkage=0.03


Tree=3
num_leaves=50
num_cat=0
split_feature=16 2 16 4 2 0 16 2 4 15 16 16 16 2 16 15 4 15 2 2 16 4 2 2 4 0 2 16 0 4 16 16 16 3 4 16 0 2 2 0 4 16 0 3 3 16 2 16 2
split_gain=2.06729 1.04168 0.895167 0.457745 1.24037 0.621529 0.354237 0.366449 0.27212 0.204254 0.315731 0.203477 0.15229 0.147205 0.253215 0.132632 0.124704 0.121602 0.133268 0.120899 0.0987258 0.0974574 0.0881779 0.0825059 0.0914561 0.0990572 0.0826364 0.10436 0.0814762 0.0813723 0.106377 0.0860645 0.101816 0.223341 0.078953 0.0670089 0.066492 0.0630159 0.0600656 0.0599095 0.0865066 0.0587582 0.0584098 0.0574121 0.133468 0.0753826 0.0488599 0.0482549 0.0751391
threshold=-2.3541139918384766 1.6368794635598989 -3.9974000744392884 0.97994178818636157 -2.0149131661555253 -1.1249935496799808 -1.2623526835449861 0.74836514803481846 0.4164289144149762 1.366747254330472 -1.9450438717887184 1.2622015654709335 -3.3254204586968057 -0.54573640715692207 -0.49196903921559859 -1.438690252853704 -2.2525150914277554 0.93298220604712656 -1.3731776912171709 2.8879989706457372 -1.1010626786373627 1.1698291626141446 0.37874110565732627 -0.97138837963677738 -0.92400938227714569 -0.73113966061744418 -0.6601995314693897 -0.94425960920955088 -0.028578273922312273 0.36357134541449743 -0.51337072668490158 -1.0826070148550058 -0.51337072668490158 0.075415838909673211 -1.6760113562541132 -0.96981850254066926 -0.7828733345026917 -0.88125086578193967 1.3209702038657407 0.7419450665543631 1.2748410537080923 -2.8254403235436958 -0.73113966061744418 0.14046003279403316 -0.29394629343211359 -0.081044950087343318 0.73479616020350103 1.0000000180025095e-35 0.06504414765399591
decision_type=2 2 2 2 2 2 2 2 2 2 2 2 2 2 2 2 2 2 2 2 2 2 2 2 2 2 2 2 2 2 2 2 2 2 2 2 2 2 2 2 2 2 2 2 2 2 2 2 2
left_child=2 6 -1 4 41 -6 9 13 -7 22 -11 -9 -5 15 20 -8 -16 18 36 -3 -15 38 34 24 25 -20 28 -28 35 31 -31 -26 42 -34 -2 -25 -17 -30 -13 40 46 -4 -33 44 -19 -45 -18 48 -41
right_child=1 19 3 12 5 8 7 11 -10 10 -12 21 -14 14 16 17 39 43 23 -21 -22 -23 -24 26 29 -27 27 -29 37 30 -32 32 33 -35 -36 -37 -38 -39 -40 47 -42 -43 -44 45 -46 -47 -48 -49 -50
leaf_value=-0.00046462373045225088 -0.0018166499707854072 -0.0015779062023898568 0.0091703884383949504 -0.00076607824537143889 -0.0008357933580102222 0.0070211248744779554 0.0024594259300490012 -0.00065070372209377321 0.0018032516597478244 0.0040625393060175 -0.00021888787343082641 0.001222414503658324 0.0026135885482468451 0.00075266554128049169 0.0020174712317812941 6.2763084738447537e-05 0.0001522801836435804 0.00084011576241872006 0.00092303832909509313 -0.0037408175701905185 -0.00070546931189311996 -0.00072224504371382742 -0.0021957701752843605 -0.0017724040885094643 -4.0524858959108221e-05 -0.0020048136914621534 0.0025894509904788102 0.0004101333539315983 -0.00063951639523251362 -0.00094172648655978166 0.0012266938008642662 0.004072541718569276 -0.00017987268836909288 0.0034242925922306272 -0.00058857145974648044 -0.00020010242546280162 -0.0015211727142486573 0.00079201147166298039 -0.00026389439036784642 -0.0003693308508203576 0.0017901056652047059 0.0065675431888577059 0.0018075628268620014 -0.0002699056427308898 0.003191631133050688 0.001852917162143135 0.0015231039940429795 -0.00027429665028538781 0.0018770401576808484
leaf_weight=60 54 288 24 21 37 20 29 874 20 20 63 103 25 44 32 37 3243 86 20 28 453 44 39 28 25 20 23 191 33 36 45 22 47 22 639 252 53 127 28 25 30 42 35 47 32 21 24 449 25
leaf_count=60 54 288 24 21 37 20 29 874 20 20 63 103 25 44 32 37 3243 86 20 28 453 44 39 28 25 20 23 191 33 36 45 22 47 22 639 252 53 127 28 25 30 42 35 47 32 21 24 449 25
internal_value=-6.44144e-06 -9.34334e-05 0.00268316 0.00369804 0.00454131 0.00189834 -2.1172e-05 5.12252e-05 0.004498 -0.000611515 0.000780327 -0.000462316 0.00100731 0.000148731 6.5527e-05 0.000438593 0.000148864 0.000387142 0.000254122 -0.00178017 -0.000570218 0.000461248 -0.000773516 0.000363524 0.00080566 -0.000467424 0.000174957 0.000659471 -5.39734e-05 0.00103819 0.000225987 0.00145358 0.00177362 0.000929159 -0.000688843 -0.00036862 -0.000837356 0.000477806 0.000881888 0.000132269 0.000179081 0.00757186 0.00273991 0.00109709 0.00150538 0.000343377 0.000163315 -0.000170994 0.000695479
internal_weight=7985 7736 249 189 143 77 7420 6605 40 815 83 1049 46 5556 4325 1231 3828 1202 1016 316 497 175 732 926 272 40 654 214 440 232 81 151 126 69 693 280 90 160 131 3796 3297 66 57 186 118 68 3267 499 50
internal_count=7985 7736 249 189 143 77 7420 6605 40 815 83 1049 46 5556 4325 1231 3828 1202 1016 316 497 175 732 926 272 40 654 214 440 232 81 151 126 69 693 280 90 160 131 3796 3297 66 57 186 118 68 3267 499 50
is_linear=0
shrinkage=0.03


Tree=4
num_leaves=50
num_cat=0
split_feature=16 1 16 1 2 3 2 0 2 16 0 16 1 16 15 16 0 2 16 1 1 2 2 16 1 1 16 2 1 2 3 2 15 15 2 1 3 2 3 3 1 1 2 3 2 2 16 1 1
split_gain=1.94605 1.05206 0.843355 0.578469 0.508671 0.463056 0.602433 0.581055 0.444951 0.414321 0.407436 0.323854 0.311233 0.207399 0.186082 0.305454 0.144311 0.238634 0.232548 0.141471 0.145106 0.176353 0.101174 0.121575 0.0964794 0.0951109 0.0935242 0.0925797 0.136454 0.0799646 0.0795758 0.0790527 0.0747526 0.102845 0.131981 0.118995 0.0983939 0.0750315 0.0737024 0.0658129 0.151835 0.0669543 0.10497 0.0707567 0.0631523 0.0930416 0.114644 0.0882214 0.139971
threshold=-2.3541139918384766 0.64322572459817295 -3.9974000744392884 -0.86772607925607437 0.74836514803481846 -0.064156140204437398 -2.0149131661555253 -1.228281807673542 1.6368794635598989 -1.2623526835449861 0.72661947394128668 -0.26884813398667623 1.1852825856789293 1.2622015654709335 1.366747254330472 -1.7791286846376382 0.25881018735504085 -0.74658993523917239 -0.22926413943478682 -0.85409405913952752 0.11920530338996539 0.47499488474713941 0.031887883993523825 0.58218913722010457 2.4092823738227476 1.5189140129041174 0.79092239583438895 -0.55709004786964866 -1.0564983853846612 -0.70990810731529475 1.1782040351194045 2.8879989706457372 -0.75419560600256885 0.97845237887664094 -0.78410054759058989 -0.29189952742788977 -0.45042479984869793 -1.5546918786491555 1.0000000180025095e-35 -0.20808150193713812 -0.1499419433547283 -0.89666105883030933 -1.3104225668555531 -0.6406926581087159 -0.46120168262494088 -1.280182751067259 -0.39776884844169252 -1.1063048235007689 -0.67629714046254152
decision_type=2 2 2 2 2 2 2 2 2 2 2 2 2 2 2 2 2 2 2 2 2 2 2 2 2 2 2 2 2 2 2 2 2 2 2 2 2 2 2 2 2 2 2 2 2 2 2 2 2
left_child=2 4 -1 5 9 6 -4 -8 11 14 -5 12 -3 -6 27 -16 32 18 -18 -19 21 -21 -13 24 25 -24 -10 29 -29 39 -14 -28 44 37 35 36 -35 -34 -27 41 -41 42 -2 -43 45 -11 47 -47 -49
right_child=1 8 3 10 13 -7 7 -9 26 16 -12 22 30 -15 15 -17 17 19 -20 20 -22 -23 23 -25 -26 38 31 28 -30 -31 -32 -33 33 34 -36 -37 -38 -39 -40 40 -42 43 -44 -45 -46 46 -48 48 -50
leaf_value=-0.00045070820916893447 0.000290152974288629 -0.00031951467502857949 0.0078807341886140032 -0.000663691266961491 -0.00079890656123832355 0.0016358219959542279 -0.00060106007215469633 0.0064967891404321835 -0.0028955098094422416 -0.00055379480015714066 0.0045461152160345608 -0.00089322170071190585 -0.0025891013155878366 0.0014826342053184248 0.0033467119632615253 -0.00053881868471567255 0.00070619304516268049 -0.0010521816810471988 0.0033320403380780834 0.0011708422351197206 0.00015729889913738417 -0.00045899075407115328 0.00016814213023682298 -0.00039384953409678339 -0.0011496324911191361 0.0029116752046581618 -0.0012141794566851195 0.0017872976550231815 -0.00049490398385997189 -0.0019453755649474927 -0.00058112407137038728 -0.00331100088985575 -0.001638543294608901 0.0011701705888309099 0.00027928193654736726 -6.3494576875907001e-05 0.0036999042074769952 7.5180482861603764e-05 0.00069925480657267937 -0.001730668012994651 0.00097404100700729549 -0.0014748535516431705 -0.0010877749886093779 0.00015085915343586315 0.00027577210859456674 0.00029064440452675151 0.00049507363344977089 0.004163599666544073 0.0010619171367698282
leaf_weight=60 156 131 55 39 648 35 20 20 74 31 20 233 141 37 29 46 78 53 54 378 486 68 161 716 32 24 137 32 87 53 25 21 23 39 335 25 27 2352 43 108 21 86 72 29 451 23 112 29 30
leaf_count=60 156 131 55 39 648 35 20 20 74 31 20 233 141 37 29 46 78 53 54 378 486 68 161 716 32 24 137 32 87 53 25 21 23 39 335 25 27 2352 43 108 21 86 72 29 451 23 112 29 30
internal_value=-6.19881e-06 -9.06125e-05 0.00260333 0.00358845 9.72716e-05 0.00471291 0.00581212 0.0028804 -0.000740712 0.000196912 0.00105629 -0.000549465 -0.00143991 -0.000671093 -0.000471071 0.000926096 0.000302117 0.000600168 0.00180482 0.00043552 0.000523443 0.000915575 -0.000328138 -0.000190085 0.000359453 0.000584818 -0.00196848 -0.000638561 9.45938e-05 -0.000810442 -0.00230529 -0.00151376 0.00020549 0.00013566 0.00056563 0.00158537 0.00225448 5.7253e-05 0.00153963 -0.000676263 -0.00126672 -0.000445149 -0.000132116 -0.00103905 0.000490333 0.000906766 0.00115578 0.00201996 0.0026417
internal_weight=7985 7736 249 189 5998 130 95 40 1738 5313 59 1506 297 685 719 75 4594 1117 132 985 932 446 1209 976 260 228 232 644 119 525 166 158 3477 2801 426 91 66 2375 67 472 129 343 228 115 676 225 194 82 59
internal_count=7985 7736 249 189 5998 130 95 40 1738 5313 59 1506 297 685 719 75 4594 1117 132 985 932 446 1209 976 260 228 232 644 119 525 166 158 3477 2801 426 91 66 2375 67 472 129 343 228 115 676 225 194 82 59
is_linear=0
shrinkage=0.03


Tree=5
num_leaves=50
num_cat=0
split_feature=16 16 1 2 1 3 2 3 16 16 2 16 4 1 0 2 16 0 1 2 2 2 1 16 16 1 0 3 16 3 1 1 2 2 2 0 2 1 16 4 2 2 1 16 1 3 0 0 2
split_gain=2.18734 1.02 0.962393 0.554617 0.53993 0.505273 0.517342 0.490489 0.361604 0.317385 0.351208 0.29297 0.287708 0.2117 0.19566 0.204623 0.184492 0.160695 0.174535 0.146274 0.108865 0.105819 0.323533 0.149538 0.266688 0.296432 0.178634 0.129371 0.126665 0.118913 0.103665 0.101083 0.161691 0.0941304 0.0838829 0.0827413 0.0809554 0.072521 0.101134 0.119724 0.116121 0.0989514 0.135358 0.0773296 0.0662146 0.0912316 0.0674695 0.0631455 0.062831
threshold=-2.3541139918384766 -3.9974000744392884 1.1401008027598656 0.74836514803481846 -0.9321239524382835 -0.064156140204437398 -1.9484551604827154 0.16105049264453855 -1.2623526835449861 -0.11157945422323798 1.5966469777978969 1.2398564809990276 -1.2941086899483194 0.55060423028578576 0.2789468152472786 -0.74658993523917239 -0.22926413943478682 -1.1489992783687211 -1.9462873340431657 2.8879989706457372 -0.93215673622447703 -0.9526947834617544 -0.52288689955727363 -1.1010626786373627 -0.65694971787802403 -1.1063048235007689 -0.7828733345026917 -0.55641687189814315 -0.79733327963445011 -0.030914349962145728 -0.85409405913952752 0.10032976170902121 0.47499488474713941 1.3874468651282912 -1.3104225668555531 0.60870620280084642 -0.51416951420281964 0.38052424917667083 -1.8888825118546626 -1.4230407236464171 -1.2188294344558344 -0.41786529400798594 -0.71809787231977673 -2.0778577665571762 -1.2094665718415545 -1.0370577476453435 -1.0799191345782351 -1.228281807673542 0.45471987816581771
decision_type=2 2 2 2 2 2 2 2 2 2 2 2 2 2 2 2 2 2 2 2 2 2 2 2 2 2 2 2 2 2 2 2 2 2 2 2 2 2 2 2 2 2 2 2 2 2 2 2 2
left_child=1 47 3 8 5 6 17 -6 37 -4 12 -5 -11 14 21 16 -16 18 -3 -12 -15 22 23 -10 25 -25 -27 34 -24 -30 -17 32 -32 -13 -26 -18 -22 38 39 -2 43 -40 -43 -41 45 -23 48 -1 -46
right_child=2 4 9 11 7 -7 -8 -9 13 10 19 33 -14 20 15 30 35 -19 -20 -21 36 44 28 24 27 26 -28 -29 29 -31 31 -33 -34 -35 -36 -37 -38 -39 41 40 -42 42 -44 -45 46 -47 -48 -49 -50
leaf_value=0.00043365299464218884 -0.0018523845440555969 0.0078889176456072314 -0.0021399922375770876 -0.00087169249403263932 -0.0012197356928032117 0.0014116695321330398 0.0023058216630951643 0.0040587231243729982 -0.00046027081276849946 0.0013740340733780375 -0.0014647160129256792 0.0011317186727333357 -0.00061928198032462308 -0.0021327934172210659 0.0009008218456771635 -0.00082727136409662609 0.001771689947542831 0.0090660203223706642 0.0036393273572492241 -0.0038801910024203515 0.00069407491151801562 0.00048569341359149302 -0.0019803959691925125 0.00088745775809582236 -0.0018413052030384397 0.0057304163999576992 0.0018288532349823123 0.0017601061992024373 -0.0011371625420136965 0.001660749962895937 0.0011783355685973898 0.00022364847049818469 -0.00046648955484585443 -0.00081872198675721338 0.00041092637852143868 0.0046485511127364711 -0.00030205121729915096 0.00058250853789554736 -0.00093056325600989398 0.0023978422368041321 -0.00054418408661685916 0.0019896353323055407 -0.00068733475976297319 0.00040824495555650305 -0.00058838141777740698 -0.00087297450953906957 0.00021049461615654523 -0.0013747249902264728 0.00079397675179797181
leaf_weight=30 25 21 184 805 31 32 29 31 36 75 156 97 465 27 83 48 22 31 22 29 82 65 43 46 21 32 20 48 28 26 339 380 61 27 47 24 608 51 462 29 65 26 47 57 173 128 2709 36 34
leaf_count=30 25 21 184 805 31 32 29 31 36 75 156 97 465 27 83 48 22 31 22 29 82 65 43 46 21 32 20 48 28 26 339 380 61 27 47 24 608 51 462 29 65 26 47 57 173 128 2709 36 34
internal_value=-1.00973e-05 0.00267948 -0.000102027 1.97456e-05 0.00376228 0.00483533 0.00586749 0.00137347 0.000127592 -0.00101899 -0.000730098 -0.000660959 -0.000336675 0.000218574 0.000296572 0.000677391 0.00179739 0.00721779 0.0057978 -0.00186146 -0.000257276 0.000190235 0.000689147 0.00126416 0.00156834 0.00272801 0.00429379 0.000561276 -0.000761728 0.000155107 0.00049908 0.000584643 0.000919948 0.000682534 -0.000242245 0.00334456 -0.00017924 -0.00048094 -0.000561511 4.63757e-05 0.000381612 -0.000767066 0.000226484 0.001116 0.000133565 -0.000399841 0.000169911 -0.000507937 -0.000346568
internal_weight=7993 263 7730 6821 197 135 103 62 5892 909 725 929 540 5130 4413 957 129 74 43 185 717 3456 347 250 214 98 52 116 97 54 828 780 400 124 68 46 690 762 711 176 151 535 73 86 3109 193 2916 66 207
internal_count=7993 263 7730 6821 197 135 103 62 5892 909 725 929 540 5130 4413 957 129 74 43 185 717 3456 347 250 214 98 52 116 97 54 828 780 400 124 68 46 690 762 711 176 151 535 73 86 3109 193 2916 66 207
is_linear=0
shrinkage=0.03


Tree=6
num_leaves=50
num_cat=0
split_feature=16 16 1 2 1 3 2 3 16 16 2 16 4 1 0 2 16 16 4 2 2 2 1 16 16 1 0 3 16 3 1 1 2 0 2 1 16 4 2 2 1 16 1 16 0 3 0 16 16
split_gain=2.06057 0.96067 0.906012 0.521939 0.508712 0.475196 0.486279 0.461858 0.340213 0.298381 0.330647 0.276362 0.270786 0.199319 0.184159 0.192921 0.173599 0.156114 0.184107 0.137315 0.102422 0.0996474 0.304814 0.141146 0.251133 0.278753 0.167267 0.122921 0.119168 0.111941 0.0976429 0.0949313 0.15232 0.0772233 0.0762099 0.0683319 0.0951493 0.112685 0.109491 0.0930689 0.127429 0.0725608 0.0622252 0.0861455 0.0634143 0.062257 0.0605041 0.2289 0.101044
threshold=-2.3541139918384766 -3.9974000744392884 1.1401008027598656 0.74836514803481846 -0.9321239524382835 -0.064156140204437398 -1.9484551604827154 0.16105049264453855 -1.2623526835449861 -0.11157945422323798 1.5966469777978969 1.3019869443409926 -1.2941086899483194 0.55060423028578576 0.2789468152472786 -0.74658993523917239 -0.22926413943478682 -2.8254403235436958 0.099860787235089912 2.8879989706457372 -0.93215673622447703 -0.9526947834617544 -0.52288689955727363 -1.1010626786373627 -0.65694971787802403 -1.1063048235007689 -0.7828733345026917 -1.1463534654162451 -0.79733327963445011 -0.030914349962145728 -0.85409405913952752 0.10032976170902121 0.47499488474713941 0.60870620280084642 -0.51416951420281964 0.38052424917667083 -1.8888825118546626 -1.4230407236464171 -1.2188294344558344 -0.41786529400798594 -0.71809787231977673 -2.0778577665571762 -1.2094665718415545 -1.0826070148550058 -1.0799191345782351 -0.79801727485768936 -0.32758310436432775 -0.75254518515964486 -0.71434481773855074
decision_type=2 2 2 2 2 2 2 2 2 2 2 2 2 2 2 2 2 2 2 2 2 2 2 2 2 2 2 2 2 2 2 2 2 2 2 2 2 2 2 2 2 2 2 2 2 2 2 2 2
left_child=1 -1 3 8 5 6 17 -6 35 -4 12 -5 -11 14 21 16 -16 -3 -19 -12 -15 22 23 -10 25 -25 -27 -26 -24 -30 -17 32 -32 -18 -22 36 37 -2 41 -38 -41 -39 43 -23 -44 -45 48 -48 -46
right_child=2 4 9 11 7 -7 -8 -9 13 10 19 -13 -14 20 15 30 33 18 -20 -21 34 42 28 24 27 26 -28 -29 29 -31 31 -33 -34 -35 -36 -37 39 38 -40 40 -42 -43 44 45 46 -47 47 -49 -50
leaf_value=-0.00049137974538348628 -0.0017970344349667723 0.0091765010749097469 -0.0020758273515451672 -0.00081662727169660207 -0.0011832612787651862 0.0013694513986043839 0.0022368847244639981 0.0039373529005280643 -0.00044650097268116284 0.0013328679285809577 -0.0014208026886030926 0.00088511750785565634 -0.00060070751029485197 -0.002069045694964178 0.00087382971955083364 -0.00080250483040485848 0.0017187797779647201 0.0040548129065787969 0.0081945238295775737 -0.0037641853456308622 0.00067327802237940001 0.00099472279634291866 -0.0019211219479016563 0.00086089178262714801 -0.0010199068532058804 0.0055590394297701734 0.0017742606068947419 0.0011507563768306279 -0.0011031690560897736 0.0016111183511200305 0.0011429959387720655 0.00021694078748421292 -0.0004525177974601424 0.0045096731957442338 -0.00029299116905706971 0.00056506746188407573 -0.00090265240295980028 0.0023261541646716817 -0.00052788362592219454 0.0019301749344101582 -0.00066675848858490294 0.00039601904424902334 -0.00033573333524079395 0 0.001313873896204899 -0.0012183719350431521 -0.0019542851802465074 0.00014583986559462176 0.00028116009521374008
leaf_weight=66 25 25 184 835 31 32 29 31 36 75 156 94 465 27 83 48 22 29 20 29 82 32 43 46 31 32 20 85 28 26 339 380 61 24 608 51 462 29 65 26 47 57 207 73 95 88 48 1495 1071
leaf_count=66 25 25 184 835 31 32 29 31 36 75 156 94 465 27 83 48 22 29 20 29 82 32 43 46 31 32 20 85 28 26 339 380 61 24 608 51 462 29 65 26 47 57 207 73 95 88 48 1495 1071
internal_value=-9.70325e-06 0.00260076 -9.89404e-05 1.91987e-05 0.00365165 0.00469347 0.00569475 0.00133095 0.000123832 -0.000988643 -0.000708338 -0.000641132 -0.000326404 0.000212095 0.000287786 0.000657281 0.00174503 0.00700452 0.00581884 -0.00180619 -0.000249565 0.000184586 0.000668791 0.00122706 0.00152268 0.00264827 0.00416714 0.000544447 -0.000738921 0.00014882 0.000483999 0.000567107 0.00089213 0.0032466 -0.000173731 -0.000466388 -0.000544662 4.44803e-05 0.000370209 -0.000744052 0.000218512 0.00108367 0.000129558 -0.000387386 0.000164814 -0.00068116 0.00020418 7.84421e-05 0.000367979
internal_weight=7993 263 7730 6821 197 135 103 62 5892 909 725 929 540 5130 4413 957 129 74 49 185 717 3456 347 250 214 98 52 116 97 54 828 780 400 46 690 762 711 176 151 535 73 86 3109 193 2916 161 2709 1543 1166
internal_count=7993 263 7730 6821 197 135 103 62 5892 909 725 929 540 5130 4413 957 129 74 49 185 717 3456 347 250 214 98 52 116 97 54 828 780 400 46 690 762 711 176 151 535 73 86 3109 193 2916 161 2709 1543 1166
is_linear=0
shrinkage=0.03


Tree=7
num_leaves=50
num_cat=0
split_feature=16 16 1 2 1 3 2 3 16 16 2 16 1 0 2 16 16 3 2 15 16 15 2 2 2 2 1 16 1 16 1 1 2 2 16 3 3 16 16 16 1 16 2 1 3 3 0 2 1
split_gain=1.94075 0.905414 0.852929 0.491021 0.479325 0.446907 0.457075 0.434906 0.320055 0.280507 0.311294 0.26165 0.187639 0.173372 0.181898 0.163348 0.145333 0.143455 0.128893 0.111751 0.133907 0.100403 0.200651 0.0980154 0.0963597 0.0952618 0.270125 0.132472 0.239999 0.100439 0.0919733 0.0891487 0.143496 0.0883003 0.0877621 0.0873297 0.0810121 0.0948106 0.0779758 0.0750381 0.0863882 0.0741413 0.0958987 0.167849 0.101678 0.0821618 0.0720491 0.0717435 0.0690344
threshold=-2.3541139918384766 -3.9974000744392884 1.1401008027598656 0.74836514803481846 -0.9321239524382835 -0.064156140204437398 -1.9484551604827154 0.16105049264453855 -1.2623526835449861 -0.11157945422323798 1.5966469777978969 1.2398564809990276 0.55060423028578576 0.2789468152472786 -0.74658993523917239 -0.22926413943478682 -2.8254403235436958 -0.55641687189814315 2.8879989706457372 1.366747254330472 -1.7145237674229634 1.2300053561172424 -0.78410054759058989 -1.5241223098027441 -0.93215673622447703 -0.9526947834617544 -0.52288689955727363 -0.47796676153819889 -1.1063048235007689 -0.79733327963445011 -0.85409405913952752 0.10032976170902121 0.47499488474713941 1.3874468651282912 -0.96981850254066926 -0.041757295809598298 -1.2928643808699338 -0.49196903921559859 -0.031161935967083328 -1.1272413076367418 -1.1224808909810211 0.3501204661250486 0.17414002772756768 -0.37912667853730747 -0.25003854973279444 0.8476434925201296 0.60870620280084642 -0.51416951420281964 0.051888563357120575
decision_type=2 2 2 2 2 2 2 2 2 2 2 2 2 2 2 2 2 2 2 2 2 2 2 2 2 2 2 2 2 2 2 2 2 2 2 2 2 2 2 2 2 2 2 2 2 2 2 2 2
left_child=1 -1 3 8 5 6 16 -6 19 -4 17 -5 13 21 15 -15 -3 -11 -12 -2 -21 23 36 -10 -14 26 27 28 -25 -28 -16 32 -32 -13 -30 -31 -23 -38 39 40 -27 42 45 -44 48 -40 -17 -26 -45
right_child=2 4 9 11 7 -7 -8 -9 12 10 18 33 24 14 30 46 -18 -19 -20 20 -22 22 -24 25 47 38 29 -29 34 35 31 -33 -34 -35 -36 -37 37 -39 41 -41 -42 -43 43 44 -46 -47 -48 -49 -50
leaf_value=-0.00047666064915831977 -0.0005728607607028164 0.0089023027455144774 -0.0020135863578351217 -0.00082104920692613065 -0.0011478775848074549 0.0013284958738868479 0.0021700087897287505 0.0038196120928625584 -0.0014178118399677182 0.0011326474455734387 -0.0013782058944009855 0.0010828428643891812 -0.0020072034215795156 0.00084764636643562931 -0.00077847974070177454 0.0016674496123053096 0.0056468550178038375 -0.00048382224208774754 -0.0036516478826224648 0.0021942563505960855 -0.00037044688114193331 0.00038522846626020719 0.00025692799159117766 0.00045447242301814057 0.00065310427807719555 0.0025299160332599678 -0.0022464798567186895 0.0002619591077771683 0.0013866230375098702 -0.001166253232443512 0.0011087161626727497 0.00021043428312334718 -0.00043896447512383667 -0.000805635692747619 0.0041113953395953348 0.0015097886262767349 0.0039833570670773973 0.0010643370998184686 0.00014054991465780719 -0.00018897187536340838 -0.00012594781796892743 8.8115393627987294e-05 -0.00014710196568924638 0.0037107788812892452 0.0005281687789013452 0.0019325890369802357 0.0043749443648761731 -0.0002842028825365278 0.0012621866549866704
leaf_weight=66 689 25 184 805 31 32 29 31 36 54 156 97 27 83 48 22 49 486 29 30 43 21 223 56 82 20 28 75 20 24 339 380 61 27 40 20 28 21 371 885 20 1407 49 33 32 25 24 608 22
leaf_count=66 689 25 184 805 31 32 29 31 36 54 156 97 27 83 48 22 49 486 29 30 43 21 223 56 82 20 28 75 20 24 339 380 61 27 40 20 28 21 371 885 20 1407 49 33 32 25 24 608 22
internal_value=-9.34107e-06 0.00252407 -9.59558e-05 1.86574e-05 0.00354435 0.00455589 0.00552721 0.00128971 0.000120157 -0.000959204 -0.00068723 -0.000621801 0.000205777 0.000279227 0.000637773 0.00169424 0.00679768 -0.000316441 -0.00175257 -0.000452273 0.000644061 0.000179058 0.000712517 0.000128673 -0.000242085 0.000147481 0.000695633 0.00129203 0.00193139 -0.000844467 0.000469371 0.000550097 0.000865146 0.00064715 0.00325687 0 0.00211866 0.00279816 9.60744e-05 -0.000128569 0.00113017 0.000204789 0.000507646 0.00120097 0.00199398 0.000261717 0.00315156 -0.000168387 0.00278986
internal_weight=7993 263 7730 6821 197 135 103 62 5892 909 725 929 5130 4413 957 129 74 540 185 762 73 3456 293 3163 717 3127 263 191 116 72 828 780 400 124 60 44 70 49 2864 925 40 1939 532 136 87 396 46 690 55
internal_count=7993 263 7730 6821 197 135 103 62 5892 909 725 929 5130 4413 957 129 74 540 185 762 73 3456 293 3163 717 3127 263 191 116 72 828 780 400 124 60 44 70 49 2864 925 40 1939 532 136 87 396 46 690 55
is_linear=0
shrinkage=0.03


Tree=8
num_leaves=50
num_cat=0
split_feature=16 16 2 2 16 0 2 16 15 16 2 2 2 15 16 16 16 4 2 2 15 3 0 16 0 4 16 16 0 16 0 15 16 2 4 4 16 4 4 4 0 3 0 4 16 16 2 2 2
split_gain=1.82722 0.855549 0.943496 0.767981 0.282807 0.27889 0.250077 0.204518 0.188698 0.144333 0.139426 0.134553 0.160799 0.12051 0.132782 0.100225 0.118931 0.0883919 0.0864909 0.0843623 0.115012 0.0863411 0.0843579 0.0826391 0.0801851 0.141126 0.127809 0.0947337 0.0729978 0.095437 0.0713036 0.0602091 0.058652 0.0604452 0.100616 0.0565399 0.0562055 0.0531056 0.0527392 0.0575753 0.0818676 0.0531974 0.0480078 0.0689446 0.0555702 0.0444559 0.1197 0.115961 0.0797659
threshold=-2.3541139918384766 -3.3254204586968057 -1.9484551604827154 1.5966469777978969 -1.2623526835449861 -0.85103674456600531 0.74836514803481846 1.1629840035713424 0.19806582730196715 -2.8254403235436958 2.8879989706457372 -0.97138837963677738 -1.3731776912171709 1.366747254330472 -1.7145237674229634 -1.1885632842305645 -0.51337072668490158 1.1698291626141446 0.37874110565732627 -0.32687955745037417 1.0733143935040017 -1.6267921318283289 -0.4407515664885901 -2.5431884504333868 -0.89052380414760479 -0.90878300129664424 -0.54193367803599723 -1.0120309474718345 -0.7828733345026917 -0.67354644067317049 0.24854568743280112 -0.0097186619617500598 -1.0550577663015337 -1.1863335331694354 0.55259067215340074 -1.6760113562541132 -1.029668117481136 0.607952173653037 -1.4230407236464171 0.38945786389325826 0.1779824696275594 -0.7829722648117925 0.63409274808790983 0.86361111582419325 -0.99100897885369033 0.4335689106303825 0.017824395517791494 0.46490177664592053 -0.44504194444517337
decision_type=2 2 2 2 2 2 2 2 2 2 2 2 2 2 2 2 2 2 2 2 2 2 2 2 2 2 2 2 2 2 2 2 2 2 2 2 2 2 2 2 2 2 2 2 2 2 2 2 2
left_child=1 8 9 4 13 -4 11 38 37 -3 -5 12 28 18 -15 -13 19 -9 35 20 21 -17 -22 -11 26 -26 27 -14 29 -6 -30 -7 -27 34 -34 -2 -21 -1 -8 41 -41 -40 43 44 -23 46 48 -48 -18
right_child=3 2 5 10 6 31 7 17 -10 23 -12 15 24 14 -16 16 45 -19 -20 36 22 42 -24 -25 25 32 -28 -29 30 -31 -32 -33 33 -35 -36 -37 -38 -39 39 40 -42 -43 -44 -45 -46 -47 47 -49 -50
leaf_value=0 -0.0016191332915017531 0.0082428003795590107 -0.00060733733317730096 -0.0012752780968389808 0.0013848712323151549 0.0014509575789291144 8.8881395035894301e-05 0.00069528016839546472 0.0019607073094886846 0.0036166052102140078 -0.003456927239655298 0.0018035251944035016 0.0013493298899579004 0.0021286473591193909 -0.00039575027814033943 0.0015587989915092789 0.00028614812387141905 -0.00069351308097663727 -0.002204876959976653 0.00011205345661473923 0.002090016693690154 -0.001326709708021716 -5.4592391275670889e-05 0.0062475422920034544 -0.0016008579833388891 -0.00029457244630969292 0 0.0043398611189276685 -0.0019964497270952919 -0.0011844547317405023 0.00013083192783949979 0.0039380822133743901 0.002958317014532036 0.00075514954476770793 0.00016849454642401483 -0.00051698420080314663 -0.00086888006860780069 -0.0017469488889031986 -0.00010720522751261181 0.00094908940614291484 -0.00054554208995392299 -0.0010441955315572998 0.00064417386602020309 -0.0020273924069813044 -0.00011966154997949506 3.7744643682913126e-05 0.0008142148966480831 -2.7595629655718138e-05 -0.00020556944149641092
leaf_weight=34 48 23 34 311 34 21 79 185 35 29 31 30 25 30 46 22 620 51 33 60 37 43 25 33 21 28 20 21 34 20 20 26 35 159 21 664 249 28 72 37 237 387 35 25 208 2489 468 205 565
leaf_count=34 48 23 34 311 34 21 79 185 35 29 31 30 25 30 46 22 620 51 33 60 37 43 25 33 21 28 20 21 34 20 20 26 35 159 21 664 249 28 72 37 237 387 35 25 208 2489 468 205 565
internal_value=-8.92264e-06 0.00244927 0.00375758 -9.2977e-05 -2.82173e-05 0.00138951 3.6986e-05 -0.000387163 0.000177835 0.00597468 -0.00148275 0.000118077 0.000623459 -0.000553359 0.000562788 7.3909e-05 6.30066e-05 0.000382286 -0.000671307 -0.000297464 0 -0.000227891 0.00117825 0.00507306 0.000954772 0.000702313 0.00191663 0.0027861 -0.000361079 0.000377386 -0.00115433 0.00289595 0.00091427 0.00108571 0.00196777 -0.000595716 -0.000668727 -0.000781853 -0.00061451 -0.000694413 -0.000332495 -0.000903807 -0.000364384 -0.000503333 -0.00033884 0.000122081 0.000233436 0.000553371 4.91715e-05
internal_weight=7993 263 166 7730 7388 81 6567 1048 97 85 342 5519 438 821 76 5081 5051 236 745 704 395 333 62 62 330 264 66 46 108 54 54 47 243 215 56 712 309 62 812 733 274 459 311 276 251 4347 1858 673 1185
internal_count=7993 263 166 7730 7388 81 6567 1048 97 85 342 5519 438 821 76 5081 5051 236 745 704 395 333 62 62 330 264 66 46 108 54 54 47 243 215 56 712 309 62 812 733 274 459 311 276 251 4347 1858 673 1185
is_linear=0
shrinkage=0.03


Tree=9
num_leaves=50
num_cat=0
split_feature=2 1 0 2 2 15 2 4 2 1 2 0 2 4 3 1 3 2 2 2 2 4 0 1 4 2 4 2 1 3 2 3 0 1 0 1 1 2 2 4 15 3 0 1 1 0 0 3 2
split_gain=1.09583 0.81048 0.602038 0.456603 0.220933 0.193013 0.346712 0.18483 0.261414 0.242834 0.167524 0.425034 0.161999 0.178148 0.161203 0.12191 0.17798 0.192389 0.106768 0.106699 0.140116 0.139361 0.116096 0.185136 0.095923 0.0931358 0.0927451 0.101467 0.0941069 0.0916381 0.0861133 0.0805477 0.0805344 0.079147 0.0899226 0.0845852 0.082513 0.123274 0.0779724 0.130687 0.076125 0.0724055 0.0722038 0.0686995 0.0671806 0.065975 0.0642732 0.0613107 0.0601228
threshold=-1.9484551604827154 1.0235675615109716 -0.22347480527355224 0.74836514803481846 2.8879989706457372 1.0733143935040017 -1.5241223098027441 -1.1735992458591309 -2.2981623448341781 -0.94936959164383194 -2.1595864116754617 -1.1489992783687211 0.14175083730883545 -1.7516489796898833 -0.59339658953615182 -1.1669098467982908 -0.22723921439299441 -0.3152687980638072 0.78823480495128984 -1.280182751067259 -0.97138837963677738 -0.54075399502421717 0.038704172724856496 -0.52288689955727363 0.97994178818636157 -0.32687955745037417 0.26516865633326653 1.3874468651282912 0.27042969712626769 -0.35321260718386188 1.5966469777978969 0.48356182277829457 2.2993264857980962 0.61285567611245018 0.25881018735504085 -1.1224808909810211 0.11112728846129059 0.63539227802014953 -1.2188294344558344 -0.062847202603071861 0.49807371320990007 -0.47117847651483979 -0.083097229340718351 -0.43104787257356292 1.4606147111351395 -1.1249935496799808 -0.96813892593632922 -1.3640145657321328 0.98923095524910554
decision_type=2 2 2 2 2 2 2 2 2 2 2 2 2 2 2 2 2 2 2 2 2 2 2 2 2 2 2 2 2 2 2 2 2 2 2 2 2 2 2 2 2 2 2 2 2 2 2 2 2
left_child=2 3 7 5 12 15 14 8 -1 10 29 -12 44 18 -7 16 38 -18 -14 21 22 45 23 41 31 46 -5 28 42 -9 -15 -24 33 34 35 -22 37 43 39 -2 -40 47 -28 -36 -3 -17 -8 -21 -30
right_child=1 4 -4 26 -6 6 25 9 -10 -11 11 -13 13 30 -16 19 17 -19 -20 20 32 -23 24 -25 -26 -27 27 -29 48 -31 -32 -33 -34 -35 36 -37 -38 -39 40 -41 -42 -43 -44 -45 -46 -47 -48 -49 -50
leaf_value=0.002832199516514988 -2.6859983135872864e-05 -0.00098766786707924154 -0.0026796726547667128 -0.00085189983804032988 -0.0034024807874908501 0.00087153790949551918 -9.2147510560728783e-05 0.0035086219780908448 -0.0011447529223575015 0 0.0016051603187448701 0.0072348845203050243 0.0025474665715181388 -0.00049304765457389719 0.0046466951390532465 -3.3631731571581251e-05 -0.0017732451088770798 0.00027861121497032822 0 0.00022358152462080173 0.0016644725388231564 1.5107501290082874e-05 0.0013923190096333084 -0.0008461319446333472 2.7568918468653032e-05 0.00010129886178869809 0.0010677833162225871 -0.001077125845558789 0.00011857593061031306 0.0010240484998914703 -0.0012872248382457454 0.00413024947832899 0.0017063589033085044 -0.00025191819172005033 0.00015008333310639354 6.0482495430402081e-05 0.00011394181626815588 -0.0012689446135464889 -5.7794560642464002e-05 0.0017766143900168889 -0.001549367614275607 -6.91439630643743e-05 -0.00065502549864360085 0.0010825771547336774 -0.0020807740369512802 -0.0020866788521970193 0.0010255707112158409 0.0020616680576974605 0.0016394304096394652
leaf_weight=34 108 140 21 509 30 20 51 41 25 20 22 32 24 562 27 23 124 58 36 27 30 155 27 63 20 368 25 90 60 26 168 21 29 464 103 2736 393 25 187 52 38 29 134 305 99 55 248 65 44
leaf_count=34 108 140 21 509 30 20 51 41 25 20 22 32 24 562 27 23 124 58 36 27 30 155 27 63 20 368 25 90 60 26 168 21 29 464 103 2736 393 25 187 52 38 29 134 305 99 55 248 65 44
internal_value=-8.61679e-06 -6.82362e-05 0.00207356 5.30268e-05 -0.000839687 0.000148406 0.000611212 0.00258873 0.0010972 0.00319036 0.0036965 0.00500395 -0.000761731 -0.000548438 0.0031092 8.3485e-05 -0.000329851 -0.00110309 0.00100173 0.00013543 0.000169546 -0.000486528 0.000858012 0.000444707 0.00193002 0.000430256 -0.00059084 -0.000205781 8.12913e-05 0.00259213 -0.000680077 0.00265863 0.000126321 0.000114243 0.000162383 7.90235e-05 0.00043785 0.000724815 2.80804e-05 0.000541274 -0.000323608 0.00114171 -0.000364787 0.000854614 -0.00145369 -0.00152052 0.000824926 0.00155563 0.00079179
internal_weight=7993 7772 221 6713 1059 5851 714 200 59 141 121 54 1029 790 47 5137 567 182 60 4570 4337 233 252 184 68 667 862 353 263 67 730 48 4085 4056 3592 2766 826 433 385 160 225 121 159 408 239 78 299 92 104
internal_count=7993 7772 221 6713 1059 5851 714 200 59 141 121 54 1029 790 47 5137 567 182 60 4570 4337 233 252 184 68 667 862 353 263 67 730 48 4085 4056 3592 2766 826 433 385 160 225 121 159 408 239 78 299 92 104
is_linear=0
shrinkage=0.03


Tree=10
num_leaves=50
num_cat=0
split_feature=16 1 16 2 4 0 16 2 2 16 1 2 2 4 15 1 1 16 4 16 15 2 0 1 16 16 4 16 1 0 4 4 1 16 16 0 0 16 16 4 16 0 0 16 1 15 0 0 4
split_gain=1.31697 0.839721 0.599392 0.431665 0.691359 0.427828 0.372769 0.353302 0.305654 0.300116 0.338865 0.237829 0.255557 0.199406 0.174561 0.167347 0.166198 0.157786 0.144922 0.122905 0.104276 0.0940075 0.130885 0.126156 0.11418 0.193641 0.114138 0.0973706 0.107053 0.0963737 0.0936815 0.0911365 0.088286 0.172851 0.143398 0.242276 0.0827186 0.237491 0.129712 0.180697 0.141758 0.113029 0.0808346 0.0715817 0.0976918 0.0685009 0.0684488 0.0644781 0.13602
threshold=-2.3541139918384766 0.64322572459817295 -3.9974000744392884 -1.9484551604827154 1.0019493415920717 -0.13686840001444522 -1.2623526835449861 0.90921026869637467 1.6368794635598989 -0.24055434417529828 1.3890550312307435 -0.97138837963677738 -1.3731776912171709 -1.8156133190373851 1.366747254330472 -1.1224808909810211 -0.78604325170357303 1.2622015654709335 -0.7641840252285893 -1.7791286846376382 -0.0097186619617500598 0.29754021311281109 0.2869735972519305 0.13863281418763665 0.56081868094938236 -0.096877513682268643 -0.90878300129664424 -0.91891582619792167 -0.6541692597041141 -1.228281807673542 2.1927892236186408 1.7075459606414969 -0.94936959164383194 -0.96981850254066926 -0.65694971787802403 -0.39734372133936757 0.4731101257195674 -0.32854457212794447 -0.47796676153819889 0.24240020811445578 -1.029668117481136 -0.73113966061744418 -0.19098032943041796 0.12452024460144577 -0.20655651904008368 -0.16297387571309799 -1.0386820120514 -0.81688646830335332 -0.20938296209519466
decision_type=2 2 2 2 2 2 2 2 2 2 2 2 2 2 2 2 2 2 2 2 2 2 2 2 2 2 2 2 2 2 2 2 2 2 2 2 2 2 2 2 2 2 2 2 2 2 2 2 2
left_child=2 6 -1 4 47 20 14 11 9 10 -3 12 16 45 -2 18 -8 -9 -13 -16 -5 22 29 27 25 -23 -27 -24 -29 -17 -10 -12 34 -34 35 -31 38 -38 39 40 -14 -42 -40 -28 -45 -11 -20 48 -4
right_child=1 8 3 5 -6 -7 7 17 30 13 31 15 36 -15 19 21 -18 -19 46 -21 -22 24 23 -25 -26 26 43 28 -30 32 -32 -33 33 -35 -36 -37 37 -39 42 -41 41 -43 -44 44 -46 -47 -48 -49 -50
leaf_value=-0.00037090601990516655 -0.00070302918051789835 -0.0004399894178010069 0.0048765345867281358 -0.0011101485221995657 -0.000145001167207338 0.0044727692055119856 0.00084221522060284263 -0.0007601668162348558 -0.0018826629949947808 0.0029641549923883135 -0.0027699885924137961 0.00092397981738615151 0.00029639303637861707 -0.00036701035312925058 0.0023280267512243353 -0.00071070399791201911 -0.0015600108102789851 0.0016532089154187781 3.4980564945505051e-05 -7.9359888305883776e-05 0.0015202782400640968 -0.00049370463322798803 0.0031734646723341584 0.00020653262606753402 -0.00026456952214922943 -0.00049147497179508949 0.0020200460623957055 -0.00083720063949913721 0.0011047926000756971 0.0047317041056804459 4.6282256890206307e-05 -0.00039203263973858931 -0.0017669298338746683 0.00023912102082509422 0.0003484809911653923 3.0672927938790105e-05 0.0005194522971454905 0.0048603716758564442 -0.00023459401460834052 0 0.0043018188311555244 0.0017635937340336667 0.001247646146802161 5.1531714222959636e-05 0.0012701831948442707 0.00031566475879456565 -0.001087251742547285 0.003649314628357853 0.0082902570916295604
leaf_weight=64 678 175 41 37 24 26 50 439 211 21 119 51 24 1154 29 96 52 25 59 49 21 170 20 274 653 55 51 26 308 21 22 20 39 2025 108 21 27 22 71 38 38 37 58 113 138 20 190 21 21
leaf_count=64 678 175 41 37 24 26 50 439 211 21 119 51 24 1154 29 96 52 25 59 49 21 170 20 274 653 55 51 26 308 21 22 20 39 2025 108 21 27 22 71 38 38 37 58 113 138 20 190 21 21
internal_value=-2.0617e-05 -9.03826e-05 0.00210001 0.00294342 0.00421901 0.00127979 7.61657e-05 0.000165512 -0.000670979 -0.000511898 -0.00133979 0.000241848 0.000928316 -0.000291756 -0.000546059 0.000176356 -0.000353395 -0.000623343 -0.000504511 0.000779117 -0.00010514 0.000226698 0.000317535 0.000703603 0 0.00032898 0.000729164 0.0010797 0.000944435 0.000211253 -0.00168772 -0.00244993 0.000252615 0.000199679 0.000960406 0.0024581 0.00135285 0.00253547 0.00112285 0.0017723 0.00244674 0.00309359 0.000409052 0.000961486 0.000733734 0.00174911 -0.000809391 0.00551565 0.00609259
internal_weight=8052 7797 255 191 107 84 6055 5299 1742 1509 314 4835 417 1195 756 4418 102 464 300 78 58 4118 2938 628 1180 527 357 354 334 2310 233 139 2214 2064 150 42 315 49 266 137 99 75 129 302 251 41 249 83 62
internal_count=8052 7797 255 191 107 84 6055 5299 1742 1509 314 4835 417 1195 756 4418 102 464 300 78 58 4118 2938 628 1180 527 357 354 334 2310 233 139 2214 2064 150 42 315 49 266 137 99 75 129 302 251 41 249 83 62
is_linear=0
shrinkage=0.03


Tree=11
num_leaves=50
num_cat=0
split_feature=16 1 16 2 3 3 16 2 2 16 1 2 2 4 15 1 3 1 16 16 4 16 2 2 16 16 4 4 16 2 15 1 16 15 16 16 1 2 4 3 1 2 16 16 1 2 1 2 1
split_gain=1.23972 0.790522 0.564826 0.405915 0.778764 0.353998 0.350919 0.332442 0.287243 0.283085 0.278817 0.224281 0.24077 0.177445 0.164114 0.157259 0.178722 0.156463 0.148606 0.129102 0.157357 0.116527 0.0958784 0.0885053 0.107437 0.182349 0.107633 0.0884752 0.0809617 0.103828 0.0773844 0.0764868 0.19493 0.0751433 0.0729414 0.119548 0.108268 0.0996209 0.117996 0.0941895 0.0815958 0.0677843 0.07245 0.0671323 0.09178 0.066442 0.0624415 0.0623656 0.183713
threshold=-2.3541139918384766 0.64322572459817295 -3.9974000744392884 -1.9484551604827154 -0.064156140204437398 0.060420805262244609 -1.2623526835449861 0.90921026869637467 1.6368794635598989 -0.49196903921559859 1.3890550312307435 -0.97138837963677738 -1.3731776912171709 -1.8799651065541687 1.366747254330472 -1.1224808909810211 -1.252244257720396 -0.78604325170357303 1.2622015654709335 -2.8254403235436958 -0.20938296209519466 -1.8888825118546626 -1.7543784542058638 0.29754021311281109 0.56081868094938236 -0.096877513682268643 -0.90878300129664424 2.1927892236186408 0.96732446709327224 -0.067149541309544078 -0.9407359635612681 -0.94936959164383194 -0.87364205087236668 -0.60226914929954789 -0.51337072668490158 -0.39776884844169252 -0.37912667853730747 -0.38452658344300744 0.038959025532599258 -0.90704114773045885 -0.67629714046254152 -0.18516422830319598 -0.87364205087236668 0.12452024460144577 -0.20655651904008368 -0.88125086578193967 -1.1669098467982908 -0.55709004786964866 -0.77257023083253074
decision_type=2 2 2 2 2 2 2 2 2 2 2 2 2 2 2 2 2 2 2 2 2 2 2 2 2 2 2 2 2 2 2 2 2 2 2 2 2 2 2 2 2 2 2 2 2 2 2 2 2
left_child=2 6 -1 4 19 22 14 11 9 10 -3 12 17 -11 47 16 -13 46 -9 -4 -21 -16 -5 28 25 -25 -27 -10 31 -30 -14 32 -17 -32 36 37 39 38 -36 -33 -37 -18 -43 -28 -45 -38 -8 -2 -49
right_child=1 8 3 5 -6 -7 7 18 27 13 -12 15 30 -15 21 23 41 -19 -20 20 -22 -23 -24 24 -26 26 43 -29 29 -31 33 34 -34 -35 35 40 45 -39 -40 -41 -42 42 -44 44 -46 -47 -48 48 -50
leaf_value=-0.00035979619899520569 -0.00082676594182221432 -0.00046694348152876629 0.0078651259853446624 0.0013320741626022168 0.00024903453799112103 0.0041440984422619308 -5.7203635226289051e-05 -0.00073736701066988257 -0.0018262098589029705 0.0016380933354181372 -0.0025228540484746958 0.000936127394203816 0.0025508963148133381 -0.00037812157376367902 0.0027257079753413124 0.0035145268045635508 -0.0012433760677869833 -0.0015133003093438103 0.0016038102581280753 0.0031479451897525293 0.0069549015175495565 1.9854589965733059e-05 -0.0011232527513957364 -0.00047890219643606925 -0.00025663365406200338 -0.00047675747536765086 0.0019595632555670377 4.4900050715488538e-05 -7.8635765309432196e-05 0.0011108800989414274 0 -0.00058598006094948282 0.00046274836348772643 0.0013250989538617637 0.0007549857823018971 -0.00031806609761290402 -0.0022885006341331585 -1.1077219987595351e-05 0.0035393163878161358 0.00085755004107129784 0.00028797675670460128 0.0012032757144367237 -0.00072461837705714127 4.998714667411437e-05 0.0012321053005152727 -0.0004984996992476303 0.0019689125150696117 0.0012299321329845674 -0.0010111456595946324
leaf_weight=64 542 133 24 25 34 26 27 439 211 40 114 61 43 1222 20 22 154 52 25 29 20 58 33 170 653 55 51 22 87 225 44 64 158 228 35 220 24 29 27 105 1818 24 61 113 138 124 23 55 81
leaf_count=64 542 133 24 25 34 26 27 439 211 40 114 61 43 1222 20 22 154 52 25 29 20 58 33 170 653 55 51 22 87 225 44 64 158 228 35 220 24 29 27 105 1818 24 61 113 138 124 23 55 81
internal_value=-1.98693e-05 -8.75689e-05 0.00203761 0.00285639 0.00409375 0.00124157 7.40136e-05 0.000160715 -0.000650906 -0.000496602 -0.0014286 0.000234776 0.000901453 -0.000311714 -0.000529671 0.000171153 -0.000488777 -0.000341932 -0.000604443 0.00584061 0.0047739 0.000754677 -1.28159e-05 0.000219968 0 0.000319124 0.000707565 -0.00163673 0.000308107 0.000769657 0.00131357 0.0002521 0.000854145 0.00110608 0.000206536 0.000270376 -0.000212707 0.00134021 0.00201957 0.000293124 0.000221071 -0.000865243 -0.000144245 0.00093327 0.000712096 -0.000810376 0.000816999 -0.000681941 -8.2547e-05
internal_weight=8052 7797 255 191 107 84 6055 5299 1742 1509 247 4835 417 1262 756 4418 300 102 464 73 49 78 58 4118 1180 527 357 233 2938 312 315 2626 180 272 2446 2129 317 91 62 169 2038 239 85 302 251 148 50 678 136
internal_count=8052 7797 255 191 107 84 6055 5299 1742 1509 247 4835 417 1262 756 4418 300 102 464 73 49 78 58 4118 1180 527 357 233 2938 312 315 2626 180 272 2446 2129 317 91 62 169 2038 239 85 302 251 148 50 678 136
is_linear=0
shrinkage=0.03


Tree=12
num_leaves=50
num_cat=0
split_feature=16 1 16 1 16 3 4 16 1 0 16 1 15 16 4 1 3 1 16 0 4 16 0 1 0 0 16 3 1 16 3 3 3 4 16 16 16 15 15 0 0 4 4 4 3 0 16 0 4
split_gain=1.16792 0.744007 0.532601 0.351604 0.329969 0.277266 0.255572 0.206922 0.29583 0.217924 0.181937 0.256997 0.15479 0.11045 0.0952332 0.086873 0.138737 0.0901253 0.270119 0.359386 0.147588 0.109192 0.215222 0.229931 0.149247 0.090348 0.0922353 0.126642 0.077903 0.0765258 0.0754218 0.0919213 0.0714436 0.124765 0.0949259 0.0698514 0.0689066 0.062514 0.0599605 0.0581429 0.0547664 0.0539098 0.0526828 0.0514811 0.0605049 0.0511026 0.0509231 0.0689009 0.0749898
threshold=-2.3541139918384766 0.64322572459817295 -3.9974000744392884 -0.8290927484468481 -1.2623526835449861 0.37930233803323771 1.0019493415920717 -2.8254403235436958 -1.6992036842890648 -1.228281807673542 -0.49196903921559859 1.5658849315097421 1.366747254330472 -1.7791286846376382 -2.2525150914277554 -1.1669098467982908 -1.252244257720396 -0.84342408833319238 -0.81145955321315133 -0.62594979037677068 -0.482104558087257 -0.79733327963445011 0.2869735972519305 -0.48607198147157565 -0.47553026282302818 -1.228281807673542 0.42732606151463709 -0.80656894218185227 2.1801837643385666 1.25288741135801 1.6681662363168985 0.43642419540798844 -0.67390582032597568 0.015484570219303372 -0.21546260643515025 -1.0120309474718345 -1.0120309474718345 -0.76998850164931332 1.9626279419772483 0.1156837196082008 0.88515380965277168 0.65347247244799533 -1.0887604185352189 2.37753392812234 -0.096632268500147014 -1.2584525469914771 1.3128335479265352 0.44537880782145434 1.7903931604945804
decision_type=2 2 2 2 2 2 2 2 2 2 2 2 2 2 2 2 2 2 2 2 2 2 2 2 2 2 2 2 2 2 2 2 2 2 2 2 2 2 2 2 2 2 2 2 2 2 2 2 2
left_child=2 4 45 6 12 -5 7 -4 9 -9 11 39 -2 -14 -12 16 -6 18 19 20 -17 22 23 24 35 42 27 -27 46 -28 31 -31 -20 34 -34 -19 -18 -24 -15 -3 -33 -21 -23 44 -30 -1 47 -16 -49
right_child=1 10 3 5 15 -7 -8 8 -10 -11 14 -13 13 38 28 17 36 21 32 41 -22 25 37 -25 -26 26 29 -29 43 30 -32 40 33 -35 -36 -37 -38 -39 -40 -41 -42 -43 -44 -45 -46 -47 -48 48 -50
leaf_value=0.00051166588370928285 -0.00066148587158671032 -0.001072557711241642 0.0064214191912515609 -0.00086027385284885365 0.00074727852523712244 0.0033906360214989105 0.00032190475557277446 0.0034038289002013581 0.0054145237915746739 -0.00058187257039791606 0.0010351505508247618 -0.0025438529100344962 0.0022020415667343652 0.00084095531924702649 -0.00030038403183041531 0.0057689269979471136 0.00028397692425313309 1.352327562893879e-05 -0.00017157087696564692 -0.00084913283091157192 0.0021908786278410051 0 0.0022893142743633864 -0.0019612369444456123 -0.0017703312193391035 -9.7025706688999515e-05 2.1437282272112753e-05 0.000506741457344547 2.8130964640138669e-06 -0.00035001751213573285 -0.00064008223069965376 0.0014927545824138628 0.0033173198977106584 0.00022431116731616872 0.00047455403349010649 0.0025753460836848373 -0.00088646423473560335 0.0002504065469796423 -0.001244936501365397 8.980317131310653e-05 -6.9396811200361398e-05 0.0012011874652736911 -0.0013520331864408349 0 -0.0016348732252323805 -0.0011470542922934403 -1.8906308907038934e-05 -0.00091671140495039175 0.00022119688793720743
leaf_weight=29 678 85 30 35 84 22 20 28 36 20 34 103 29 26 556 21 53 22 200 25 29 47 20 103 20 397 2123 1346 20 39 33 118 24 189 24 21 212 55 23 63 20 21 53 25 122 35 213 467 54
leaf_count=29 678 85 30 35 84 22 20 28 36 20 34 103 29 26 556 21 53 22 200 25 29 47 20 103 20 397 2123 1346 20 39 33 118 24 189 24 21 212 55 23 63 20 21 53 25 122 35 213 467 54
internal_value=-1.9198e-05 -8.49188e-05 0.0019778 0.00277294 7.18245e-05 0.000730953 0.00361798 0.00416916 0.00332243 0.00168299 -0.000631436 -0.00138542 -0.000513534 0.000733295 -0.000502412 0.000155911 -0.000298178 0.000188538 0.000558959 0.00200323 0.00376205 0.000143148 -0.000474226 -0.00108458 0.000301981 0.000179506 0.000201942 0.000367504 -0.000540419 7.69536e-05 0.000623641 0.000876419 0.000234432 0.000589631 0.00196225 0.00133732 -0.000641041 0.000836386 -7.75784e-05 -0.000557786 0.00124475 2.23822e-05 -0.000704289 -0.00116184 -0.00138326 -0.000349019 -0.000457563 -0.000541521 -0.000792994
internal_weight=8052 7797 255 191 6055 57 134 114 84 48 1742 251 756 78 1491 5299 349 4950 533 96 50 4417 241 166 63 4176 4076 1743 1457 2333 210 177 437 237 48 43 265 75 49 148 138 46 100 167 142 64 1290 1077 521
internal_count=8052 7797 255 191 6055 57 134 114 84 48 1742 251 756 78 1491 5299 349 4950 533 96 50 4417 241 166 63 4176 4076 1743 1457 2333 210 177 437 237 48 43 265 75 49 148 138 46 100 167 142 64 1290 1077 521
is_linear=0
shrinkage=0.03


Tree=13
num_leaves=50
num_cat=0
split_feature=16 1 16 2 4 0 16 2 2 16 1 2 2 4 15 1 1 16 4 16 16 4 2 0 1 16 16 4 16 1 0 1 16 16 0 0 16 16 4 16 0 0 2 15 16 1 0 4 2
split_gain=1.09982 0.700241 0.501465 0.365502 0.60222 0.382069 0.310443 0.31357 0.267708 0.257242 0.289177 0.207399 0.223709 0.173849 0.145757 0.142283 0.140047 0.137872 0.126459 0.104597 0.0863645 0.0835794 0.0826542 0.117486 0.118148 0.100279 0.171954 0.100789 0.0872124 0.104003 0.0856105 0.077213 0.152898 0.125604 0.219526 0.0770608 0.224447 0.120337 0.166468 0.131828 0.101812 0.0750542 0.0750304 0.0634465 0.0625363 0.086197 0.0600646 0.0591297 0.0587987
threshold=-2.3541139918384766 0.64322572459817295 -3.9974000744392884 -1.9484551604827154 1.0019493415920717 -0.56675437396896289 -1.2623526835449861 0.90921026869637467 1.6368794635598989 -0.24055434417529828 1.3890550312307435 -0.97138837963677738 -1.3731776912171709 -1.8156133190373851 1.366747254330472 -1.1224808909810211 -0.78604325170357303 1.2622015654709335 -0.79642854364900117 -1.8888825118546626 0.79092239583438895 1.7075459606414969 0.29754021311281109 0.2869735972519305 0.10032976170902121 0.56081868094938236 -0.096877513682268643 -0.90878300129664424 -0.91891582619792167 -0.6541692597041141 -1.228281807673542 -0.94936959164383194 -0.96981850254066926 -0.65694971787802403 -0.39734372133936757 0.4731101257195674 -0.32854457212794447 -0.47796676153819889 0.24240020811445578 -1.029668117481136 -0.73113966061744418 -0.19098032943041796 -1.7543784542058638 -0.16297387571309799 0.12452024460144577 -0.20655651904008368 -1.0386820120514 1.7903931604945804 -0.55709004786964866
decision_type=2 2 2 2 2 2 2 2 2 2 2 2 2 2 2 2 2 2 2 2 2 2 2 2 2 2 2 2 2 2 2 2 2 2 2 2 2 2 2 2 2 2 2 2 2 2 2 2 2
left_child=2 6 -1 4 -4 42 14 11 9 10 -3 12 16 43 48 18 -8 -9 -13 -16 -10 -12 23 30 28 26 -24 -28 -25 -30 -17 33 -33 34 -32 37 -37 38 39 -14 -41 -39 -5 -11 -29 -46 -20 -22 -2
right_child=1 8 3 5 -6 -7 7 17 20 13 21 15 35 -15 19 22 -18 -19 46 -21 47 -23 25 24 -26 -27 27 44 29 -31 31 32 -34 -35 -36 36 -38 41 -40 40 -42 -43 -44 -45 45 -47 -48 -49 -50
leaf_value=-0.00033717428314079671 -0.00078212662017968643 -0.00039731810868745386 0.0050762479624203291 0.00070354040731980473 -0.00020076640723157223 0.0034997188783614506 0.00076072950947828988 -0.00071996575882190942 -0.0024562497520529462 0.0028136528668907504 -0.0025615122567120971 0.00091681103772443091 0.00023573013903627256 -0.0003298847570407998 0.0025786109485510566 -0.00067577090486102759 -0.0014424060853090914 0.0015333312056379843 3.1961193132944365e-05 1.252176595143268e-05 -0.001403639477768502 -0.00028418557065080347 -0.00047052466133371245 0.0030248523948352723 0.00020076407798251346 -0.00025200129805599478 -0.0004634616888777273 0.0018917650631911425 -0.00084568832659740638 0.0010728861062449502 0.0044593103021665767 -0.0016669443775566241 0.00021953339001153948 0.0003194070395356204 0 0.00044141184970757118 0.0046614363290394785 -0.00026852292259334774 0 0.0040845579193450332 0.0016659057715900159 0.0011614982623497918 -0.0016213398689844014 0.00026235806130206404 4.356836196064791e-05 0.0011898725110283702 -0.0010034376323285984 1.2533718925566004e-05 -5.9574549305365641e-05
leaf_weight=64 542 175 83 21 24 36 50 439 73 21 119 48 24 1154 20 96 52 25 61 58 132 20 170 20 289 653 55 51 26 293 21 39 2025 108 21 27 22 71 38 38 37 58 27 20 113 138 191 28 136
leaf_count=64 542 175 83 21 24 36 50 439 73 21 119 48 24 1154 20 96 52 25 61 58 132 20 170 20 289 653 55 51 26 293 21 39 2025 108 21 27 22 71 38 38 37 58 27 20 113 138 191 28 136
internal_value=-1.85203e-05 -8.23073e-05 0.00191937 0.00269097 0.00386553 0.00115632 6.97428e-05 0.000151316 -0.000612512 -0.00046348 -0.00123005 0.000223261 0.000864395 -0.000259458 -0.000498005 0.00016205 -0.000333367 -0.000591791 -0.00046553 0.000711365 -0.00156422 -0.00225585 0.000208508 0.000293691 0.000659498 -1.0481e-06 0.000304203 0.00068155 0.00104155 0.000906896 0.00019292 0.00023197 0.000182355 0.000894108 0.00229638 0.00126175 0.00240285 0.00103944 0.00166451 0.00231189 0.00293511 0.000351596 -0.000542487 0.00164578 0.000900093 0.000685978 -0.000740992 -0.00113722 -0.000641644
internal_weight=8052 7797 255 191 107 84 6055 5299 1742 1509 314 4835 417 1195 756 4418 102 464 300 78 233 139 4118 2938 628 1180 527 357 339 319 2310 2214 2064 150 42 315 49 266 137 99 75 129 48 41 302 251 252 160 678
internal_count=8052 7797 255 191 107 84 6055 5299 1742 1509 314 4835 417 1195 756 4418 102 464 300 78 233 139 4118 2938 628 1180 527 357 339 319 2310 2214 2064 150 42 315 49 266 137 99 75 129 48 41 302 251 252 160 678
is_linear=0
shrinkage=0.03


Tree=14
num_leaves=50
num_cat=0
split_feature=1 2 3 2 2 15 2 1 1 1 4 0 2 4 2 1 2 0 3 4 0 2 4 1 0 2 0 2 4 2 3 2 4 2 2 4 1 4 2 3 1 4 2 2 1 3 3 3 2
split_gain=0.785498 0.571109 0.323799 0.269173 0.259432 0.169071 0.198967 0.134933 0.132298 0.122282 0.334088 0.108927 0.141191 0.176978 0.106608 0.240431 0.151486 0.106129 0.21498 0.102515 0.143818 0.10026 0.0864604 0.0807964 0.0974588 0.0799423 0.0787869 0.137988 0.0777305 0.0773457 0.143829 0.109757 0.133702 0.115728 0.0886554 0.0832153 0.0753321 0.0698182 0.068477 0.0674815 0.0668944 0.0802903 0.0641795 0.0780917 0.0641159 0.0619764 0.0592723 0.0590205 0.115718
threshold=0.64322572459817295 -2.0149131661555253 0.23824237854102195 0.90921026869637467 1.6368794635598989 1.0000960622269137 -1.5546918786491555 -1.1669098467982908 1.9642732536648917 -2.1101851399292655 -1.1735992458591309 0.45374599353094253 -0.74658993523917239 -0.36722632850452885 -1.1863335331694354 -0.84342408833319238 -1.0529203903319864 -1.4636847195542628 -0.064156140204437398 -1.8799651065541687 -0.59643915354595989 0.52227593577848386 2.1927892236186408 -0.52288689955727363 -0.71875985781434959 -0.77261609264947595 0.97882258359261654 -0.9526947834617544 2.1927892236186408 -0.42784088555916483 -0.041757295809598298 -1.2470796966026272 -0.20938296209519466 -1.7543784542058638 -1.62840150493305 0.92904255915412726 -1.609167045312818 -0.11575626147670144 0.49220321033336317 1.6321921288262284 0.36072059527402645 0.70605334112398099 0.70982081598813884 -0.1159875637560159 -1.1224808909810211 -1.232049083151926 -0.11691971761279261 -0.98820819039102326 -1.5546918786491555
decision_type=2 2 2 2 2 2 2 2 2 2 2 2 2 2 2 2 2 2 2 2 2 2 2 2 2 2 2 2 2 2 2 2 2 2 2 2 2 2 2 2 2 2 2 2 2 2 2 2 2
left_child=1 2 9 5 8 7 -7 29 19 -1 -11 14 13 -13 15 47 23 -12 37 20 -2 -10 25 24 -16 -21 27 -15 -6 30 31 32 34 -34 -3 -32 -35 -19 44 -24 41 42 43 -14 45 -8 -23 -9 -49
right_child=4 3 -4 -5 28 6 38 11 21 10 17 12 40 26 16 -17 -18 18 -20 22 -22 46 39 -25 -26 -27 -28 -29 -30 -31 35 -33 33 36 -36 -37 -38 -39 -40 -41 -42 -43 -44 -45 -46 -47 -48 48 -50
leaf_value=0.003773576395080139 -0.00048137693067515326 -0.0013788927260523934 -0.0013210632502176295 -0.00059852830540303346 -0.0016951088070400035 0.0026644382853408715 0.00092324077355790423 -0.00031427026008229664 -0.0021493250361326144 -0.00071944854305818298 0.0011916326289387661 -0.00083868695626338743 0.00013180779208994152 0.0048300645132306344 0.0030370448733710899 -0.0012966044577177175 7.8888970252387596e-05 0.0030967032717229008 0.00064606876404427768 -0.0014842249705897504 0.0028911163102641204 0.00052524083802593375 0.0018063964436718946 0 0.00065979905213754014 -0.00036816183256998836 0.0011461727660628065 0.0010975188606613274 5.1769634784616478e-05 0.00020295536100640795 -0.0025899945289295698 -0.00081738038557233408 0.0032017606499590975 -0.00077141703469315898 0.00041040943209430406 -0.00063885790476329754 0.0014594047317324681 0.0060210614640848325 -0.00033137151000499522 -0.00016021832648936991 -0.00021740149141249735 0 -0.00044495646518782276 0.0014330984998164422 0.00067041292359445233 -0.0008778231394683529 -0.00098720739120275176 0.0030143044112356135 0.00014922886206878452
leaf_weight=38 22 48 26 475 211 39 25 32 65 35 36 22 66 21 33 147 3280 22 20 63 21 27 28 33 37 1156 48 20 22 159 44 166 20 23 48 45 30 21 85 30 160 171 27 143 547 50 106 21 38
leaf_count=38 22 48 26 475 211 39 25 32 65 35 36 22 66 21 33 147 3280 22 20 63 21 27 28 33 37 1156 48 20 22 159 44 166 20 23 48 45 30 21 85 30 160 171 27 143 547 50 106 21 38
internal_value=-1.7871e-05 0.000137946 0.00172401 8.597e-05 -0.000580269 0.000144284 0.00056555 7.9287e-05 -0.000434369 0.00220224 0.00173179 0.00013787 0.000487591 0.00147228 7.15472e-05 -0.00053982 0.000115459 0.00262851 0.00339885 -0.000322692 0.00109894 -0.0011632 -0.000372993 0.00124973 0.00182603 -0.00042842 0.0020775 0.0030894 -0.00151735 -0.000347502 -0.000560996 -0.000265256 0.00025949 0.00123753 -0.000453528 -0.00163896 0.000435185 0.00460514 0.000445167 0.000739022 0.000289305 0.000495876 0.000854429 0.00103677 0.000556144 -0.000237092 -0.000657466 0.000649828 0.00122314
internal_weight=8052 6301 198 6103 1751 5628 746 4882 1518 172 134 4299 678 111 3621 238 3383 99 63 1320 43 198 1277 103 70 1219 89 41 233 583 424 335 169 73 96 89 53 43 707 58 567 407 236 209 622 75 133 91 59
internal_count=8052 6301 198 6103 1751 5628 746 4882 1518 172 134 4299 678 111 3621 238 3383 99 63 1320 43 198 1277 103 70 1219 89 41 233 583 424 335 169 73 96 89 53 43 707 58 567 407 236 209 622 75 133 91 59
is_linear=0
shrinkage=0.03


Tree=15
num_leaves=50
num_cat=0
split_feature=16 1 16 16 1 4 16 16 4 1 16 4 16 1 1 0 15 4 16 1 3 16 4 1 16 0 16 15 0 1 0 16 4 3 4 16 16 0 1 15 16 3 16 4 1 4 4 4 0
split_gain=0.939898 0.624084 0.486056 0.414831 0.33534 0.27343 0.39151 0.245479 0.341135 0.558799 0.232986 0.262988 0.182645 0.15457 0.12492 0.12439 0.101003 0.0922852 0.0885191 0.0875252 0.0944333 0.0808421 0.0765242 0.0737657 0.284648 0.258563 0.175491 0.226609 0.139328 0.215849 0.138839 0.0956314 0.0931844 0.0753744 0.0737299 0.123808 0.122528 0.078075 0.0681235 0.0668987 0.119635 0.0661561 0.134238 0.0665904 0.0933736 0.066136 0.0581326 0.0562945 0.0560903
threshold=-2.3541139918384766 1.1401008027598656 -3.3254204586968057 -2.8254403235436958 -0.43938640747774144 1.3579827304952869 -3.9974000744392884 -2.6681951354394466 -0.22749695269245471 -1.6992036842890648 0.21255897295008605 -1.0104088767339503 -1.2958253806979829 0.56885343866591109 2.4092823738227476 -0.29042793054196842 -0.77808477154373989 -1.3921606953998362 0.47753792740687062 -1.1669098467982908 -1.4347982361182046 -0.59752967654881239 0.048817593283320977 -0.84342408833319238 -0.67354644067317049 -0.50468930790488609 -0.79733327963445011 -1.0750300165920732 0.2869735972519305 -0.48607198147157565 -0.4407515664885901 -1.0550577663015337 0.18308721971654779 -0.90704114773045885 0.25858893192386906 0.61670804151838143 1.0793081735252097 0.45374599353094253 1.734318146681052 1.366747254330472 -1.7791286846376382 1.0533199863900591 -0.34124353726541268 0.81702309506814497 -0.09123228068503246 0.62204838301094523 2.1927892236186408 1.3579827304952869 2.6072226689926947
decision_type=2 2 2 2 2 2 2 2 2 2 2 2 2 2 2 2 2 2 2 2 2 2 2 2 2 2 2 2 2 2 2 2 2 2 2 2 2 2 2 2 2 2 2 2 2 2 2 2 2
left_child=2 12 5 -4 7 6 -1 -5 -9 -10 17 15 39 19 18 -12 -17 21 38 20 -14 -3 -15 24 25 32 27 -25 29 30 -29 -27 33 -21 37 41 -37 -28 -13 -2 -41 -36 -43 44 -44 -38 -16 -45 -19
right_child=1 10 3 4 -6 -7 -8 8 9 -11 11 14 13 22 46 16 -18 48 -20 23 -22 -23 -24 26 -26 31 34 28 -30 -31 -32 -33 -34 -35 35 36 45 -39 -40 40 -42 42 43 47 -46 -47 -48 -49 -50
leaf_value=-0.00019306025557845784 -0.00048220392767443191 -0.0019015937513397439 0.0058524950200078436 0.00010242765158785821 -0.00069641921171095474 -0.0028659997838085859 0.0044892527537323283 0.0010107197561152147 0.0018313828909693798 0.0088087369046464751 -0.00095993154960545308 -0.00025175604438793257 0.00063412608856541677 -0.00052091077319334038 -0.0020935928371773292 0.0032632770796598336 0.00074972445507757828 -0.00215034831530546 -0.00068266971478271696 0.0022959505751624205 -0.00057267007447950129 0.00023894999768324946 1.5860940015973495e-05 0.0020368701549417583 8.7208318612356668e-05 0.001909257574260711 5.7969698349930455e-05 0.0011265336608167766 0.00021403238473118144 -0.0022826709415847634 -0.0019683153543676897 -0.00050224583148867318 0.00073619542532225141 0.0046744894478255991 0.00045240215412297645 -0.00022397662000841117 0.0011453618892298795 0.00063887829979686762 0.0018877053984369218 0.0022571885197532251 -0.00033399996589753087 -0.00040091451576122349 0.001205936114580496 9.9679338527066939e-05 0.0033764372417756728 4.4458831778439643e-05 -0.00015383708288548822 0.0016832669399371441 -0.00072546608746051791
leaf_weight=63 692 24 33 24 30 21 21 28 22 22 26 29 73 472 80 20 71 155 412 39 261 41 463 25 382 21 2426 37 62 98 20 47 20 26 555 424 115 230 22 23 48 41 54 51 33 96 21 39 38
leaf_count=63 692 24 33 24 30 21 21 28 22 22 26 29 73 472 80 20 71 155 412 39 261 41 463 25 382 21 2426 37 62 98 20 47 20 26 555 424 115 230 22 23 48 41 54 51 33 96 21 39 38
internal_value=7.1569e-06 -5.19758e-05 0.00176766 0.0028144 0.00199091 0.000152888 0.000945792 0.00286177 0.00373853 0.00540015 -0.000777556 -0.000480158 4.67274e-05 0.000101769 -0.000751425 0.000801393 0.00133806 -0.00155043 -0.000533224 0.000166257 -0.000299819 -0.000507029 -0.000251927 0.000199039 0.000533592 0.00162771 0.000156764 -0.000624874 -0.000946142 -0.00142939 0 0.00020014 0.00273294 0.00329917 0.000204061 0.000380425 6.47381e-05 0.000109426 0.000614329 -0.000390064 0.000465199 0.000635832 0.00108864 0.00145065 0.0020666 0.000658947 -0.0017205 0.000820304 -0.00188586
internal_weight=8076 7812 264 159 126 105 84 96 72 44 939 681 6873 6110 564 117 91 258 463 5175 334 65 935 4841 535 153 4306 242 217 155 57 68 85 65 4064 1408 635 2656 51 763 71 773 218 177 87 211 101 90 193
internal_count=8076 7812 264 159 126 105 84 96 72 44 939 681 6873 6110 564 117 91 258 463 5175 334 65 935 4841 535 153 4306 242 217 155 57 68 85 65 4064 1408 635 2656 51 763 71 773 218 177 87 211 101 90 193
is_linear=0
shrinkage=0.03


Tree=16
num_leaves=50
num_cat=0
split_feature=16 1 16 2 2 16 0 4 16 16 4 16 2 16 1 0 2 16 15 2 16 16 2 1 1 16 15 1 1 4 16 16 2 1 1 16 0 16 16 16 0 1 1 16 4 1 0 15 4
split_gain=0.885146 0.587849 0.458323 0.613536 0.293156 0.340722 0.27809 0.257224 0.368659 0.219514 0.329994 0.219448 0.169496 0.142432 0.111807 0.128667 0.134483 0.143643 0.117348 0.102906 0.0987151 0.144969 0.0800235 0.189211 0.152885 0.148967 0.0801579 0.0768719 0.0767671 0.0740314 0.0739373 0.0696777 0.0693704 0.108954 0.104437 0.201492 0.0720025 0.0696608 0.0692905 0.100345 0.0863251 0.0762828 0.0706952 0.0664825 0.075358 0.0656519 0.0711254 0.0724158 0.0646626
threshold=-2.3541139918384766 1.1401008027598656 -3.3254204586968057 -1.9484551604827154 0.74836514803481846 1.2398564809990276 -0.13686840001444522 1.3579827304952869 -3.9974000744392884 -0.12996868225557559 -0.90878300129664424 -1.2958253806979829 1.5966469777978969 0.93637119971123595 0.55060423028578576 0.45374599353094253 -0.74658993523917239 -0.22926413943478682 1.0000960622269137 -1.5241223098027441 -2.8254403235436958 -2.5431884504333868 -0.21080967221541289 -0.31032974837167671 -1.1881527129995433 -0.22926413943478682 1.5256931953308228 0.34128245510586325 -0.76007461665423859 -0.054145678385817443 1.4871784338972256 -0.52984664966574202 -0.97138837963677738 -0.52288689955727363 -1.1063048235007689 -0.51337072668490158 -0.73113966061744418 -0.79733327963445011 -1.1272413076367418 -0.46179213503144906 -0.23835975093943659 -0.70335024035657001 -1.0256985254238924 0.62486356456569514 0.62204838301094523 1.5658849315097421 -0.23835975093943659 -0.24804995712196307 -0.13418852035223447
decision_type=2 2 2 2 2 2 2 2 2 2 2 2 2 2 2 2 2 2 2 2 2 2 2 2 2 2 2 2 2 2 2 2 2 2 2 2 2 2 2 2 2 2 2 2 2 2 2 2 2
left_child=2 4 7 20 11 48 29 8 -1 -3 45 -2 -12 -14 15 18 17 -17 19 -13 -4 -22 23 24 -20 26 -26 28 -18 -5 -7 -25 33 34 -21 36 -36 -35 42 40 -40 -41 -34 -30 -45 -11 -47 -48 -6
right_child=1 9 3 6 5 30 -8 -9 -10 10 12 14 13 -15 -16 16 27 -19 22 32 21 -23 -24 31 25 -27 -28 -29 43 -31 -32 -33 38 37 35 -37 -38 -39 39 41 -42 -43 -44 44 -46 46 47 -49 -50
leaf_value=-0.00018727762286629521 -0.00035561761924737529 -0.001669146709757809 0.006476868803177464 -0.0012608757698756128 -0.00097775509416404664 0.0014021734948388477 0.0035367096474015485 -0.0027804272791361918 0.0043552134472046979 0 -0.00051816196815412843 -0.0013694997750100318 -0.0031687085974730273 -0.0011040082044224615 -0.00015285281533136761 0.00077145359768974976 -0.00051260676710023552 0.0032303391721768254 -0.00014300176619261597 -1.9141493499303409e-05 0.0021259240226186426 0.0054432109461554296 0.00020815454643826004 -0.0014594217363544024 0.0019322065263253259 0.00080779680621111073 0.0042001805413272404 -0.00010747374618170168 0.0011770215228193649 0.00090903127558251127 -0.00039671888173551772 0.00041545301016514513 0.0023264201487084306 -0.0016757205066705247 0.0036396206440961259 0.00030701167309962833 0.001355727086377287 0.00027197048289532796 -5.4582701395055636e-05 -0.00024681824618032552 -0.00096177374502884425 0.00021916509155875497 0 0.00093842141661475977 -0.00029608890113079722 -0.00012215125825407815 0.0029606184187754162 0.00077411168808572172 -0.0004200172025971093
leaf_weight=63 748 191 23 32 361 97 24 21 21 76 418 41 44 123 715 67 42 35 31 61 29 27 234 24 38 51 33 155 201 24 23 67 25 25 35 73 28 43 329 365 137 2146 21 92 81 22 27 38 449
leaf_count=63 748 191 23 32 361 97 24 21 21 76 418 41 44 123 715 67 42 35 31 61 29 27 234 24 38 51 33 155 201 24 23 67 25 25 35 73 28 43 329 365 137 2146 21 92 81 22 27 38 449
internal_value=7.05473e-06 -5.03188e-05 0.00171552 0.00273199 4.54641e-05 -0.000449103 0.000832313 0.00014663 0.000916502 -0.000754525 -0.000516777 0.000123368 -0.000851627 -0.00166753 0.000192918 0.000248774 0.000632914 0.00164691 0.000180063 0.00011583 0.0046143 0.00378566 0.000621016 0.00100442 0.00164908 0.00212876 0.00303295 0.00044627 0.000659779 -0.000277477 0.00103236 -4.71478e-05 0.000135305 0.00060272 0.000964585 0.00142755 0.00267586 -0.000401449 9.33199e-05 7.43725e-05 -0.000327875 0.000150228 0.00125165 0.000799558 0.000343246 0.000666377 0.00122878 0.00173159 -0.000672383
internal_weight=8076 7812 264 159 6873 930 80 105 84 939 748 5943 585 167 5195 4480 673 102 3807 3329 79 56 478 244 153 122 71 571 416 56 120 91 3288 265 197 136 63 68 3023 2977 466 2511 46 374 173 163 87 65 810
internal_count=8076 7812 264 159 6873 930 80 105 84 939 748 5943 585 167 5195 4480 673 102 3807 3329 79 56 478 244 153 122 71 571 416 56 120 91 3288 265 197 136 63 68 3023 2977 466 2511 46 374 173 163 87 65 810
is_linear=0
shrinkage=0.03


end of trees

feature_importances:
price_strength=206
momentum_6m=169
momentum_3m=155
macd_signal=98
momentum_1m=93
rsi_14=73
volume_ratio=39

parameters:
[boosting: gbdt]
[objective: regression]
[metric: l2]
[tree_learner: serial]
[device_type: cpu]
[data_sample_strategy: bagging]
[data: ]
[valid: ]
[num_iterations: 1500]
[learning_rate: 0.03]
[num_leaves: 50]
[num_threads: 4]
[seed: 42]
[deterministic: 0]
[force_col_wise: 0]
[force_row_wise: 0]
[histogram_pool_size: -1]
[max_depth: -1]
[min_data_in_leaf: 20]
[min_sum_hessian_in_leaf: 0.001]
[bagging_fraction: 0.8]
[pos_bagging_fraction: 1]
[neg_bagging_fraction: 1]
[bagging_freq: 5]
[bagging_seed: 400]
[bagging_by_query: 0]
[feature_fraction: 0.8]
[feature_fraction_bynode: 1]
[feature_fraction_seed: 30056]
[extra_trees: 0]
[extra_seed: 12879]
[early_stopping_round: 100]
[early_stopping_min_delta: 0]
[first_metric_only: 0]
[max_delta_step: 0]
[lambda_l1: 0.1]
[lambda_l2: 0.1]
[linear_lambda: 0]
[min_gain_to_split: 0]
[drop_rate: 0.1]
[max_drop: 50]
[skip_drop: 0.5]
[xgboost_dart_mode: 0]
[uniform_drop: 0]
[drop_seed: 17869]
[top_rate: 0.2]
[other_rate: 0.1]
[min_data_per_group: 100]
[max_cat_threshold: 32]
[cat_l2: 10]
[cat_smooth: 10]
[max_cat_to_onehot: 4]
[top_k: 20]
[monotone_constraints: ]
[monotone_constraints_method: basic]
[monotone_penalty: 0]
[feature_contri: ]
[forcedsplits_filename: ]
[refit_decay_rate: 0.9]
[cegb_tradeoff: 1]
[cegb_penalty_split: 0]
[cegb_penalty_feature_lazy: ]
[cegb_penalty_feature_coupled: ]
[path_smooth: 0]
[interaction_constraints: ]
[verbosity: -1]
[saved_feature_importance_type: 0]
[use_quantized_grad: 0]
[num_grad_quant_bins: 4]
[quant_train_renew_leaf: 0]
[stochastic_rounding: 1]
[linear_tree: 0]
[max_bin: 255]
[max_bin_by_feature: ]
[min_data_in_bin: 3]
[bin_construct_sample_cnt: 200000]
[data_random_seed: 175]
[is_enable_sparse: 1]
[enable_bundle: 1]
[use_missing: 1]
[zero_as_missing: 0]
[feature_pre_filter: 1]
[pre_partition: 0]
[two_round: 0]
[header: 0]
[label_column: ]
[weight_column: ]
[group_column: ]
[ignore_column: ]
[categorical_feature: ]
[forcedbins_filename: ]
[precise_float_parser: 0]
[parser_config_file: ]
[objective_seed: 16083]
[num_class: 1]
[is_unbalance: 0]
[scale_pos_weight: 1]
[sigmoid: 1]
[boost_from_average: 1]
[reg_sqrt: 0]
[alpha: 0.9]
[fair_c: 1]
[poisson_max_delta_step: 0.7]
[tweedie_variance_power: 1.5]
[lambdarank_truncation_level: 30]
[lambdarank_norm: 1]
[label_gain: ]
[lambdarank_position_bias_regularization: 0]
[eval_at: ]
[multi_error_top_k: 1]
[auc_mu_weights: ]
[num_machines: 1]
[local_listen_port: 12400]
[time_out: 120]
[machine_list_filename: ]
[machines: ]
[gpu_platform_id: -1]
[gpu_device_id: -1]
[gpu_use_dp: 0]
[num_gpu: 1]

end of parameters

pandas_categorical:[]
