tree
version=v4
num_class=1
num_tree_per_iteration=1
label_index=0
max_feature_idx=16
objective=regression
feature_names=momentum_1m momentum_3m momentum_6m rsi_14 macd_signal pe_ratio pb_ratio dividend_yield roe roa debt_to_equity profit_margin sentiment_score turnover_score flow_score volume_ratio price_strength
feature_infos=[-7.6798600910525572:4.8910830517279811] [-4.6774404577033604:4.6228035025426868] [-3.6388209671452465:5.123509204147533] [-2.9674922093337468:2.8003325628814943] [-30.162389672610786:7.776206886676702] none none none none none none none [-2.0032271040674039:0.31596030424460825] [-2.0035337853472797:0.31597095990768936] none [-2.2174533003073789:6.7505139829759759] [-4.1521696658872091:0.91363968546006591]
tree_sizes=4426 4607 4579 4550 4619 4606 4585 4514 4574 4567 4540 4588 4538 4593

Tree=0
num_leaves=50
num_cat=0
split_feature=2 1 16 2 0 0 1 16 2 16 0 2 16 2 3 0 16 2 1 1 3 2 1 2 1 16 16 2 16 2 1 16 2 16 16 2 16 16 0 2 1 2 16 0 2 3 0 1 1
split_gain=3.5006 1.43799 0.597352 0.374135 0.490869 0.374747 0.29991 0.247859 0.682486 0.267834 0.223942 0.648955 0.300284 0.23069 0.22434 0.208146 0.255295 0.207846 0.196379 0.158104 0.383951 0.137862 0.129098 0.120007 0.431691 0.252656 0.115008 0.574619 0.114773 0.114253 0.112471 0.105091 0.081131 0.109557 0.107603 0.101452 0.0739649 0.124087 0.20173 0.134653 0.070347 0.152403 0.122978 0.063663 0.0609871 0.0609814 0.0509428 0.113117 0.0954343
threshold=2.989579894530872 1.6589007821509008 -4.0547183848893633 -0.034259117378076596 0.70535585343143636 -1.357303200626786 -0.7769549605941215 -1.4241095462708568 -1.3645525069030755 -0.23864111171929903 2.1513554775697887 2.3664792883087626 -0.054902703299289625 1.4948392731392823 0.39771065835586555 0.2695906213604588 -0.36699053636903184 -1.0422884563692167 0.23301958266867592 0.93697554283937212 -0.63602988241559888 -1.2105954782736597 -0.79944942629223836 -1.01223376461346 -1.9962937899835349 -4.0243425436653784 -0.47430631871440848 -0.81149019173785952 0.87195450271685992 -0.86564159218783077 -1.7341593310253318 0.47389117406445519 -0.70870827314880802 -0.11895922524337639 0.68072248662332824 -0.28621174830777912 -0.92426616590982202 -0.60096091304184429 -1.0816957754451841 -0.58486548705737051 0.38865004772305989 0.40074698087218469 0.55492061043373542 -1.400557725304916 0.78764879886373185 -1.3629211655395823 0.17302954421263142 1.176007126169796 1.4486428428610525
decision_type=2 2 2 2 2 2 2 2 2 2 2 2 2 2 2 2 2 2 2 2 2 2 2 2 2 2 2 2 2 2 2 2 2 2 2 2 2 2 2 2 2 2 2 2 2 2 2 2 2
left_child=2 -2 21 4 7 -5 -7 23 -9 17 11 12 15 -12 -13 16 -8 -10 22 28 -21 -1 45 25 -25 -4 -6 -28 40 -24 43 -20 -31 -34 35 -35 -19 -38 -39 -40 -14 -42 44 -27 -43 -11 47 -22 -48
right_child=1 -3 3 5 26 6 10 8 9 18 13 14 19 -15 -16 -17 -18 36 31 20 46 -23 29 24 -26 30 27 -29 -30 32 -32 -33 33 34 -36 -37 37 38 39 -41 41 42 -44 -45 -46 -47 48 -49 -50
leaf_value=0.018338646035602289 0.00060900778788580863 0.011323833370119791 0.01504020471701893 0.010431654373473523 0.014201974559353295 0.017030762914629682 0.01187419247220539 0.017929041599952188 0.013618988983526724 0.0112570592944716 0.013823061960736861 0.012246255793047235 0.013193143712892508 0.017867546216872001 0.008054899164952254 0.01773741912838895 0.016187879979392368 0.013673258282517566 0.015532129658766143 0.017640287772963874 0.015719145904229053 0.014920927544821515 0.011625561834196031 0.017252161568162831 0.011907966721709648 0.011705854956654282 0.020326999979952794 0.015028127872961452 0.012282340307604261 0.014566264713079478 0.012658522468322301 0.014046493385830919 0.015821292475153174 0.013679217368757586 0.014384221208859784 0.012963312162453364 0.017249812203671874 0.013146977096017903 0.01502847910615801 0.017673484267490693 0.014399009447450857 0.013582899011557204 0.012746494306512163 0.0090416302821589162 0.015751894115507405 0.01301881260716297 0.012869280170680109 0.013354556955486241 0.014140119867679964
leaf_weight=30 25 22 20 37 61 21 22 38 98 23 39 25 878 20 26 23 27 21 68 24 32 21 24 21 38 22 22 130 103 92 39 135 20 549 129 258 32 34 72 26 155 22 156 22 20 126 115 38 96
leaf_count=30 25 22 20 37 61 21 22 38 98 23 39 25 878 20 26 23 27 21 68 24 32 21 24 21 38 22 22 130 103 92 39 135 20 549 129 258 32 34 72 26 155 22 156 22 20 126 115 38 96
internal_value=0.0136759 0.00554513 0.0137712 0.0137292 0.014003 0.0134219 0.0134838 0.0138487 0.0139542 0.0138637 0.0134411 0.0133787 0.0134801 0.0152496 0.010044 0.0153691 0.0141903 0.0147067 0.013694 0.0133951 0.0140058 0.0169953 0.0135525 0.0127307 0.0137622 0.0121113 0.0153702 0.0158187 0.0132533 0.0136704 0.0113686 0.0145596 0.0137145 0.0136356 0.0135855 0.013454 0.0152988 0.0155135 0.0150674 0.0157642 0.013337 0.0136865 0.0131438 0.0102982 0.014547 0.0127253 0.0136834 0.0143941 0.0134616
internal_weight=4097 47 4050 3999 2120 1879 1842 1907 1745 1707 1821 1762 1711 59 51 72 49 283 1424 1639 305 51 1221 162 59 103 213 152 1334 1072 83 203 1048 956 936 807 185 164 132 98 1231 353 198 44 42 149 281 70 211
internal_count=4097 47 4050 3999 2120 1879 1842 1907 1745 1707 1821 1762 1711 59 51 72 49 283 1424 1639 305 51 1221 162 59 103 213 152 1334 1072 83 203 1048 956 936 807 185 164 132 98 1231 353 198 44 42 149 281 70 211
is_linear=0
shrinkage=1


Tree=1
num_leaves=50
num_cat=0
split_feature=2 1 16 2 0 0 16 16 1 2 1 16 1 0 2 16 0 1 3 2 3 1 1 3 16 16 1 2 16 2 16 2 3 2 16 16 16 3 0 2 1 2 1 1 2 1 3 3 2
split_gain=3.29622 1.35175 0.562742 0.354874 0.565604 0.523409 0.28447 0.558054 0.368175 0.475687 0.443895 0.345491 0.312686 0.265247 0.595014 0.422399 0.217275 0.383951 0.210429 0.181924 0.169381 0.157146 0.142665 0.136835 0.110591 0.10971 0.108997 0.115784 0.181414 0.126338 0.105534 0.103811 0.0999133 0.0987194 0.0968694 0.173346 0.238309 0.130243 0.204824 0.093587 0.0919944 0.0916925 0.0734338 0.0716498 0.0669123 0.0631366 0.0615178 0.0561062 0.053675
threshold=2.989579894530872 1.6589007821509008 -4.0547183848893633 0.20537815198235368 -1.357303200626786 0.82629382226183579 -2.1129370165158701 -0.23864111171929903 -0.3959982007489477 -1.0422884563692167 0.17604213355154 -1.4241095462708568 0.37755038509434474 2.1513554775697887 2.3664792883087626 -0.08975625027064614 0.06699523540337006 0.90068933880334179 0.39771065835586555 1.4948392731392823 -0.48862030506390058 0.13845225555818516 -0.067438706485017666 -0.6498309197884572 0.38602974801323986 0.37766575341919623 -0.79944942629223836 -0.210216148636959 -0.054902703299289625 -0.86564159218783077 -4.0243425436653784 -0.82710032880055828 1.5211804867511605 -1.2581237415083188 -1.5134704294238415 -0.98857144515879747 -0.60096091304184429 -1.2773065475888614 -0.84944026143683315 -1.1470471198865193 -0.18574932597666108 1.570827463879964 1.366766724855297 1.176007126169796 0.36894069804919355 0.39791667974966133 -0.24746985942425212 -1.3629211655395823 -0.70870827314880802
decision_type=2 2 2 2 2 2 2 2 2 2 2 2 2 2 2 2 2 2 2 2 2 2 2 2 2 2 2 2 2 2 2 2 2 2 2 2 2 2 2 2 2 2 2 2 2 2 2 2 2
left_child=2 -2 23 5 -5 6 30 8 9 11 -10 -8 26 14 15 22 17 25 -16 -15 -19 31 -6 -1 -14 -17 47 29 -29 -28 -4 -7 -23 -13 -11 -36 -37 -38 -39 -12 48 44 -43 -22 45 -18 -32 -9 -31
right_child=1 -3 3 4 13 21 7 12 10 34 39 33 24 19 18 16 41 20 -20 -21 43 32 -24 -25 -26 -27 27 28 -30 40 46 -33 -34 -35 35 36 37 38 -40 -41 -42 42 -44 -45 -46 -47 -48 -49 -50
leaf_value=0.001453451079565037 -0.012673884314740914 -0.0022792611719104901 3.714688197362132e-05 -0.0047271122664598554 0.0041979761233097287 0.0040868393620737244 -0.0034300509707958595 -0.0023440267510905664 0.0058823858619999995 0.0034083293040533891 -9.1573305083317793e-05 0.0016682665927465234 0.0022617135485033979 0.00035327771322151693 -0.0013843630595629908 -0.00086012847448756061 -0.0010085449797058894 0.0044852597422147698 -0.0054504543383359569 0.0040690852664133055 0.0023641299985960791 0.0015195254572300297 0.00074055581597062554 0.0048002870042604968 0.00063204319077142469 0.00014092550072027942 -0.0019533397634680645 0.0019826737561733959 -0.00050781859713349157 0.00075161405893691812 -0.00099128439718363238 0.0017820036485662967 -0.00021112985965918179 -0.00042348736785235996 -0.00071459993998457098 0.0046363397290954331 0.0028709575105627314 -0.0014191021680467059 0.0016003646298619839 0.0024678102608661923 0.00061270125441571658 -0.00062229113081308798 0.0012296718586489778 -7.9953916353213194e-06 -0.0010019284573747895 0.00043521288614818183 -0.0027756622908381452 -0.00065415649175072762 -0.00014644954919047898
leaf_weight=25 25 22 33 26 24 32 31 23 31 27 23 29 48 34 25 144 46 22 26 20 20 89 24 26 224 301 25 27 606 68 44 58 41 64 28 23 33 29 62 24 309 38 37 21 444 64 40 131 481
leaf_count=25 25 22 33 26 24 32 31 23 31 27 23 29 48 34 25 144 46 22 26 20 20 89 24 26 224 301 25 27 606 68 44 58 41 64 28 23 33 29 62 24 309 38 37 21 444 64 40 131 481
internal_value=2.63531e-06 -0.00788718 9.51293e-05 5.43908e-05 -0.000348155 0.000252962 0.00012638 0.000199513 0.00121388 0.000758132 0.00307684 -0.000687136 -1.00154e-05 -0.000257212 -0.000349215 -0.000209822 -0.000328625 0.000127854 -0.00352259 0.00178993 0.00232131 0.00165577 0.00253677 0.00322444 0.000931383 -0.000176391 -0.000165188 -8.57287e-05 -0.000396554 0.000133717 -0.00131332 0.00263842 0.000950901 0.000197648 0.00166007 0.00137141 0.00178936 0.00123381 0.000604685 0.00115412 0.000198245 -0.000702021 0.000251818 0.00107908 -0.000836588 -0.00014166 -0.00187895 -0.000927365 -2.96339e-05
internal_weight=4097 47 4050 3999 1316 2683 2463 2346 404 326 78 124 1942 1290 1236 1185 1137 508 51 54 63 220 48 51 272 445 1670 1516 633 883 117 90 130 93 202 175 147 124 91 47 858 629 75 41 554 110 84 154 549
internal_count=4097 47 4050 3999 1316 2683 2463 2346 404 326 78 124 1942 1290 1236 1185 1137 508 51 54 63 220 48 51 272 445 1670 1516 633 883 117 90 130 93 202 175 147 124 91 47 858 629 75 41 554 110 84 154 549
is_linear=0
shrinkage=0.03


Tree=2
num_leaves=50
num_cat=0
split_feature=0 3 1 4 4 0 4 1 4 1 4 1 1 4 0 4 1 1 0 1 3 15 0 1 0 3 0 1 4 3 0 0 4 1 1 1 4 1 1 3 4 1 0 4 1 1 15 4 15
split_gain=0.244138 0.813124 0.140599 0.201097 0.125617 0.180362 0.259437 0.136892 0.139904 0.47444 0.202791 0.416366 0.127758 0.19678 0.155565 0.245196 0.235654 0.201551 0.113473 0.107895 0.0962784 0.126833 0.0691044 0.118694 0.135516 0.0985271 0.0952209 0.0897911 0.070051 0.0690481 0.0675041 0.0623872 0.0616684 0.0610266 0.060861 0.08237 0.110962 0.0765821 0.0657675 0.0600841 0.0582575 0.0531403 0.0530717 0.129979 0.0498638 0.0466325 0.0493417 0.0460254 0.0365977
threshold=2.5771715728620745 1.5994135396270235 2.5655010861553054 -0.093522660169104613 0.4260817228282035 2.1513554775697887 0.80710867602077319 1.6154646197037617 0.1547343303338572 1.2911890909684771 0.22998175132429441 0.66623112685206887 -1.2243613392960351 -0.075423969342874611 -1.0816957754451841 -0.44698371505812201 0.29864795769500779 -0.43594892855060091 -1.1119879637037424 -1.9962937899835349 0.81724568438345624 -0.16418232878235148 0.17302954421263142 0.61234129851150942 0.8685475784676806 1.0258249226488878 1.2554249426568727 0.93697554283937212 0.079371161217045558 -0.12577355937178528 0.60754947698175765 1.0027183159452699 -0.21951519734742547 -1.0101970539575904 -1.5966835129718593 -0.2999106214697474 0.32942050811026102 0.80425133499820189 -0.58271305187019284 1.0742037838330436 -0.04367718134901797 -0.35328356832594104 -1.5701721733332088 -0.39596887903276573 0.55577041577311659 -0.46959089352776284 0.29296067548549071 -0.17255484957911582 -0.50960426195360065
decision_type=2 2 2 2 2 2 2 2 2 2 2 2 2 2 2 2 2 2 2 2 2 2 2 2 2 2 2 2 2 2 2 2 2 2 2 2 2 2 2 2 2 2 2 2 2 2 2 2 2
left_child=2 -2 4 -4 7 6 45 8 12 10 11 20 13 19 16 -16 17 42 -15 -1 21 48 27 24 25 -24 31 32 -25 -8 -27 -26 41 -34 -12 36 38 -37 -36 47 -29 -17 -14 -44 -43 46 -6 -9 -10
right_child=1 -3 3 -5 5 -7 29 39 9 -11 34 -13 14 18 15 22 -18 -19 -20 -21 -22 -23 23 28 26 30 -28 40 -30 -31 -32 -33 33 -35 35 37 -38 -39 -40 -41 -42 44 43 -45 -46 -47 -48 -49 -50
leaf_value=-0.0011150774441637599 0.0014599209231328202 -0.0063631227441401771 -0.003444395642059732 0.00042206035808867545 0.0033938013989418103 -0.0016730056845699435 0.00047820151185811447 0.0014949388690501336 -0.00075191922285637559 -0.0046471532096771838 -0.001263453711124393 -0.0038514775191911001 -0.0017265864807305873 0.004295544353417469 0.0028767851256894681 0.00037225676449889703 0.0019858670676151263 -0.0030814900585076307 0.00089687354417879183 0.0011471364135835142 0.00015454293242330325 -0.0019253609630053316 0.00058976490728041692 2.9753413978307371e-05 0.001359056841690263 0 0.00019834119698096964 0.00041736803327997528 -0.001083411101318996 -0.0018671639259659409 -0.0016512089179463914 0.0038938315256575439 0.0012023662452578033 -5.9840474432870543e-05 -0.00045596829842421683 -0.00030536885824859381 0.0022211425756849777 0.0012881900664430189 0.0013469361514046453 0.0020871804146799663 0.0023353917240651681 -0.0011727393700479375 0.0018904453898960748 -0.00080617040167801305 0.00019242741210364744 0.0011676828641966515 0.0013261294156893505 -0.00035688388531682371 0.00067876506421636683
leaf_weight=34 25 22 25 21 37 21 20 20 32 23 21 36 29 21 28 34 23 40 20 42 133 64 379 239 24 85 26 71 63 22 29 21 35 1616 43 150 43 33 30 39 20 113 20 76 26 42 23 26 32
leaf_count=34 25 22 25 21 37 21 20 20 32 23 21 36 29 21 28 34 23 40 20 42 133 64 379 239 24 85 26 71 63 22 29 21 35 1616 43 150 43 33 30 39 20 113 20 76 26 42 23 26 32
internal_value=2.63298e-06 -0.00214397 2.83372e-05 -0.00161711 4.80301e-05 0.000858572 0.00124948 1.23902e-05 -1.37916e-05 -0.000418397 -0.000255172 -0.000822055 6.84116e-05 0.00104128 2.93975e-05 8.62898e-05 -0.000804304 -0.00121237 0.00271686 9.55362e-05 -0.000391399 -0.000981763 5.7013e-05 0.000279839 0.000538234 0.00035394 0.00177342 -4.21959e-05 -0.000192814 -0.000680581 -0.000403612 0.00261448 -8.95925e-05 -3.11944e-05 0.000261687 0.000379221 0.00100449 -1.07468e-06 0.000244741 0.00120261 0.000873943 -0.000629235 -0.000588292 -0.000211775 -0.000895862 0.00207349 0.00265464 0.000384677 0
internal_weight=4097 47 4050 46 4004 165 144 3839 3754 640 617 297 3114 117 2997 2809 188 165 41 76 261 128 2781 866 564 493 71 1915 302 42 114 45 1824 1651 320 299 116 183 73 85 91 173 125 96 139 102 60 46 64
internal_count=4097 47 4050 46 4004 165 144 3839 3754 640 617 297 3114 117 2997 2809 188 165 41 76 261 128 2781 866 564 493 71 1915 302 42 114 45 1824 1651 320 299 116 183 73 85 91 173 125 96 139 102 60 46 64
is_linear=0
shrinkage=0.03


Tree=3
num_leaves=50
num_cat=0
split_feature=2 1 2 0 0 2 1 1 2 0 4 2 4 1 2 15 2 2 1 2 0 0 2 2 2 2 2 15 2 1 2 0 4 2 4 0 2 2 1 4 12 4 0 1 2 0 15 2 4
split_gain=3.0702 1.26469 0.441806 0.406366 0.280422 0.358205 0.230924 0.171172 0.623016 0.232501 0.175968 0.349227 0.224195 0.162306 0.175747 0.156999 0.133286 0.348933 0.117301 0.311808 0.127321 0.115747 0.269085 0.245544 0.101389 0.400448 0.0984071 0.0980378 0.0959938 0.0945941 0.092684 0.110558 0.0807434 0.0805081 0.0775248 0.0747913 0.0717649 0.0716596 0.0821343 0.0706018 0.0678347 0.0710443 0.0648968 0.0629968 0.123025 0.0578765 0.0565129 0.0560394 0.0527394
threshold=2.989579894530872 1.6589007821509008 -0.29202494617248193 0.8685475784676806 -1.357303200626786 0.74687716563110129 -0.68866406044159112 0.7540221725429751 1.9140194974238516 -0.052092949243805114 -0.018544720784500698 1.643615957468094 -0.21506878633137433 -0.23584606042334941 -3.5194092031910942 0.29296067548549071 -1.5603090289375481 -1.2985257314444547 -1.1043552945139594 -1.01223376461346 -0.24503356371424434 2.1513554775697887 0.31038303199661649 1.4948392731392823 -0.82710032880055828 -1.2985257314444547 2.3664792883087626 -0.69780834669930603 -0.68812762901973701 -1.2243613392960351 1.4948392731392823 0.37373204852053488 -0.21506878633137433 -0.14168953761511446 -0.4301354459260513 0.06699523540337006 1.1195699790321141 0.71678020153839694 1.507104312307656 -0.0036829160778299144 1.0000000180025095e-35 0.19027661275930444 -0.54739879748089171 0.66623112685206887 -1.2985257314444547 -0.32732994296081497 0.92246612648830673 -0.59694259368777103 0.02499554602030735
decision_type=2 2 2 2 2 2 2 2 2 2 2 2 2 2 2 2 2 2 2 2 2 2 2 2 2 2 2 2 2 2 2 2 2 2 2 2 2 2 2 2 2 2 2 2 2 2 2 2 2
left_child=2 -2 3 13 5 -4 15 8 34 10 11 12 -9 14 -1 33 45 -18 19 29 27 22 -11 -23 25 -5 30 42 35 -19 31 36 -21 -6 -8 -22 -24 -33 -39 46 -15 43 -20 44 -42 -16 -29 -41 -46
right_child=1 -3 4 24 6 -7 7 9 -10 21 -12 -13 -14 40 16 -17 17 18 20 32 28 23 26 -25 -26 -27 -28 39 -30 -31 -32 37 -34 -35 -36 -37 -38 38 -40 47 41 -43 -44 -45 48 -47 -48 -49 -50
leaf_value=0.0029070301714297659 -0.012242354198741128 -0.0021823264333416604 -0.000265553257886155 0.00042016319575027806 0.00054942030098233639 -0.0054852058382621445 0.0014765332387639328 0.004733917678136434 -0.004332188132800752 0.0010008897964831854 0.0040607543312628407 -0.002359574924209224 0.00037114798080647131 -0.00012192241366912816 -0.00054746824121339459 -0.00029286674300419086 0.0029806035347869544 -0.002687713105834144 0.0015951303970590928 0 0.001848068802337074 -6.5917955183490055e-05 -0.0005635152392682839 0.0039608406237979874 0.001372548081391052 0.0060436856816232952 -0.002625281894042228 -0.00046646244429961902 -2.684614572891053e-05 0 0.00046872121902682501 -0.00031604617683912717 0.0020544941628332994 0.0031027249307812328 -0.00025555713818175972 0.00012749736546796895 0.0013845820955011947 -0.0027695546284875554 -0.00064041955797186677 -0.0018637535025777321 0.0033821282467004915 -0.00013356006735948476 -0.00036655151058893757 0.00016462848202964487 0.001382498815719348 -0.0025241627374672773 0.00099213026560329145 -0.00058183272331872383 0.00045844843530313834
leaf_weight=20 25 22 32 24 20 20 23 20 34 124 22 20 26 56 53 30 38 22 32 21 56 38 52 20 68 24 22 200 181 22 64 43 89 39 1724 45 25 46 32 62 24 44 25 63 181 21 26 80 97
leaf_count=20 25 22 32 24 20 20 23 20 34 124 22 20 26 56 53 30 38 22 32 21 56 38 52 20 68 24 22 200 181 22 64 43 89 39 1724 45 25 46 32 62 24 44 25 63 181 21 26 80 97
internal_value=2.747e-06 -0.00761173 9.2039e-05 0.000485481 -0.000156871 -0.00233737 -0.000108762 -0.0001671 -0.00031117 0.000290616 0.00170436 0.000868551 0.00233923 0.00034699 0.000126767 0.00138658 6.62428e-05 0.000169938 4.20744e-05 0.000794617 -0.000117692 1.68987e-05 -0.000154925 0.00127541 0.00219853 0.00330101 -0.000670311 -0.000448801 0.000370666 -0.00129985 -0.000493768 -0.000820099 0.00166007 0.00229035 -0.000230953 0.00111204 3.10489e-05 -0.00138609 -0.00193641 -0.000632405 0.000810693 0.000945718 0.000683069 0.00108404 0.00126579 -0.00115156 -0.000285027 -0.00116357 0.00107115
internal_weight=4097 47 4050 1574 2476 52 2424 2335 1781 554 88 66 46 1458 993 89 973 899 861 154 707 466 408 58 116 48 284 425 282 44 262 198 110 59 1747 101 77 121 78 368 465 409 57 365 302 74 226 142 278
internal_count=4097 47 4050 1574 2476 52 2424 2335 1781 554 88 66 46 1458 993 89 973 899 861 154 707 466 408 58 116 48 284 425 282 44 262 198 110 59 1747 101 77 121 78 368 465 409 57 365 302 74 226 142 278
is_linear=0
shrinkage=0.03


Tree=4
num_leaves=50
num_cat=0
split_feature=2 1 16 2 0 0 4 2 16 1 16 16 1 2 1 16 1 0 1 4 0 16 16 0 2 2 1 2 16 2 16 16 16 16 2 16 16 16 3 0 1 4 1 16 16 4 4 0 0
split_gain=2.89098 1.18876 0.502328 0.307197 0.492994 0.460469 0.271255 0.291042 0.401275 0.351214 0.263012 0.492566 0.341841 0.43433 0.412831 0.316536 0.286864 0.185322 0.275039 0.198982 0.139757 0.195045 0.185229 0.128002 0.126434 0.111042 0.102719 0.104072 0.167165 0.118322 0.102321 0.100504 0.0997988 0.0972351 0.0890795 0.0886049 0.160379 0.220832 0.124112 0.185075 0.0812542 0.0773616 0.0753603 0.141866 0.0675612 0.0668504 0.0575291 0.0561922 0.056166
threshold=2.989579894530872 1.6589007821509008 -4.0547183848893633 0.20537815198235368 -1.357303200626786 0.82629382226183579 0.44697673604602678 2.3664792883087626 -0.08975625027064614 0.96789880986621457 -2.1129370165158701 -0.23864111171929903 -0.3959982007489477 -1.0422884563692167 0.17604213355154 -1.3674412031133263 0.37755038509434474 0.06699523540337006 0.90068933880334179 -0.21506878633137433 2.1513554775697887 0.48448354606381838 -0.2822287307702589 0.039426277644094947 -1.2105954782736597 -0.52117977663949933 -0.79944942629223836 -0.210216148636959 -0.054902703299289625 -0.86564159218783077 0.37766575341919623 -0.72521755525180476 0.38602974801323986 -4.0243425436653784 -1.1470471198865193 -1.5134704294238415 -0.98857144515879747 -0.60096091304184429 -1.2773065475888614 -0.84944026143683315 -0.18574932597666108 0.042603838105909571 1.4486428428610525 0.61006479662926605 0.79308483240366845 0.031622436463618488 -0.041529037224001183 -0.22784687250446087 0.37373204852053488
decision_type=2 2 2 2 2 2 2 2 2 2 2 2 2 2 2 2 2 2 2 2 2 2 2 2 2 2 2 2 2 2 2 2 2 2 2 2 2 2 2 2 2 2 2 2 2 2 2 2 2
left_child=2 -2 24 5 -5 10 7 8 23 -9 33 12 13 15 -14 -12 26 18 30 -20 21 22 -7 -6 -1 -24 46 29 -29 -28 -10 -17 -18 -4 -16 -15 -37 -38 -39 -40 -31 -35 48 -44 -45 -42 -13 -33 -19
right_child=1 -3 3 4 6 20 -8 9 17 -11 11 16 14 35 34 31 32 42 19 -21 -22 -23 25 -25 -26 -27 27 28 -30 40 -32 47 -34 41 -36 36 37 38 39 -41 45 -43 43 44 -46 -47 -48 -49 -50
leaf_value=0.0043297136814466541 -0.011876546833738387 -0.00211715286745104 2.4885935754602446e-05 -0.0044122999519024082 0.00081642765685381634 0.0013338582614501235 0.0022124531096600164 -0.0052824568288860384 -0.00082003380262598625 -0.00034922263572369547 -0.0030989781440022741 -0.0018883686610259602 0.0056409176553740281 0.0032366808458180697 -0.00013586333541610798 0.0019625763004863413 0.0021572729270579001 -0.00041937648036983956 0.0042024418803585034 0.00055597982941356697 -0.00067170675243670343 0.00081254180209235668 0.0057742973068113778 0.0041083489316092294 0.0010579748605753149 0.00261202257318595 -0.0018927331135582281 0.0019073403704347864 -0.00048282746596298366 -2.4452986342140781e-05 0.00014687531042274313 -0.00094716903809979425 0.00060665657415214945 -0.00079358826229910661 0.0023628100207175947 -0.00071915130545236036 0.0044292727359510082 0.0027491583699695314 -0.0013839882941071671 0.0014865318844589778 0.00095053341822088798 -0.0027515191197495696 -0.0021149117107359832 0.0014699340386088446 -0.00013107671291906909 2.9538655023808117e-05 -0.00051106998262604559 0.00089062320995387297 -0.0010797930690080203
leaf_weight=30 25 22 33 26 25 49 39 23 144 33 35 41 31 27 23 23 48 213 23 38 21 99 22 23 21 29 25 27 606 549 301 45 224 42 24 28 23 33 29 62 181 42 22 41 49 128 113 21 316
leaf_count=30 25 22 33 26 25 49 39 23 144 33 35 41 31 27 23 23 48 213 23 38 21 99 22 23 21 29 25 27 606 549 301 45 224 42 24 28 23 33 29 62 181 42 22 41 49 128 113 21 316
internal_value=2.65804e-06 -0.00738621 8.93263e-05 5.07947e-05 -0.000323668 0.00023559 -0.0002386 -0.000317581 -0.000215665 -0.00243465 0.000116783 0.00018715 0.00114015 0.00070069 0.00293518 -0.000679805 -9.60787e-06 -0.000330517 9.34924e-05 0.0019846 0.0015514 0.00180129 0.00274839 0.00246144 0.00304594 0.00404348 -0.0001583 -8.11042e-05 -0.000375853 0.000126815 -0.000159386 0.000240296 0.000892012 -0.00126751 0.00107867 0.00156288 0.00128581 0.00168833 0.00115259 0.000538305 0.00018937 -0.00181033 -0.000669869 1.10515e-05 0.000565798 0.00057886 -0.000898209 -0.000316568 -0.000819678
internal_weight=4097 47 4050 3999 1316 2683 1290 1251 1195 56 2463 2346 404 326 78 124 1942 1147 506 61 220 199 100 48 51 51 1670 1516 633 883 445 89 272 117 47 202 175 147 124 91 858 84 641 112 90 309 154 66 529
internal_count=4097 47 4050 3999 1316 2683 1290 1251 1195 56 2463 2346 404 326 78 124 1942 1147 506 61 220 199 100 48 51 51 1670 1516 633 883 445 89 272 117 47 202 175 147 124 91 858 84 641 112 90 309 154 66 529
is_linear=0
shrinkage=0.03


Tree=5
num_leaves=50
num_cat=0
split_feature=2 1 16 2 16 2 16 2 4 2 2 2 1 1 15 2 1 16 2 2 4 3 2 1 16 3 2 2 1 4 4 16 2 1 1 15 2 1 4 3 1 1 16 3 3 16 4 3 16
split_gain=2.94878 1.38912 0.351016 1.52908 0.314775 0.423369 0.417047 0.350593 0.327438 0.313113 0.192553 0.187929 0.390526 0.314812 0.18787 0.219246 0.18239 0.345584 0.203153 0.167262 0.444351 0.586051 0.319762 0.193512 0.152907 0.150089 0.149903 0.143581 0.140166 0.13837 0.131701 0.276547 0.130579 0.126787 0.118292 0.0973034 0.0956815 0.0751193 0.0713759 0.0696597 0.0689754 0.0666415 0.0995633 0.198715 0.122218 0.0831425 0.0706943 0.06421 0.0787598
threshold=2.989579894530872 1.8442099819012518 -0.11895922524337639 1.570827463879964 -1.3674412031133263 -1.3645525069030755 -4.0439679974353622 -0.24061855727962445 -0.51389189734563756 -1.1890132776858984 0.18595232377410967 -0.98646184760334099 -1.3766940154225336 -0.82839636415601481 -0.63539978768600747 -0.4487597774336432 0.38865004772305989 0.73065008157754507 0.64296565849693532 0.96318660226677177 0.23488608543788825 -0.66935476093706203 0.19174168180314996 0.96789880986621457 0.36872357550474028 0.56556423468300854 -0.210216148636959 -0.28229978438730097 -0.78828877431924216 0.57941141215206138 0.0034095121134203794 0.77675509646109486 -1.0422884563692167 -1.2243613392960351 1.4486428428610525 -0.32994194215812978 1.3009522794748014 -0.18574932597666108 0.070173766499412191 -1.0055112057304207 0.81964341014951902 -0.0054202437352884958 0.51284311764724422 0.95252253458112668 0.36566064716279301 0.57463244417369841 -0.048332405293016342 0.80574802023382652 0.84127189505073419
decision_type=2 2 2 2 2 2 2 2 2 2 2 2 2 2 2 2 2 2 2 2 2 2 2 2 2 2 2 2 2 2 2 2 2 2 2 2 2 2 2 2 2 2 2 2 2 2 2 2 2
left_child=2 -2 3 4 6 -6 9 14 -9 29 -10 13 -13 -8 -7 25 26 19 47 22 21 -21 -18 -23 -25 32 28 -14 -4 -1 36 -32 -16 -34 -33 -35 -20 -30 -24 -37 -40 42 43 -28 -44 -43 -47 -19 -49
right_child=1 -3 16 -5 5 7 11 8 10 -11 -12 12 27 -15 15 -17 17 18 30 20 -22 23 38 24 -26 -27 41 -29 37 -31 31 34 33 35 -36 39 -38 -39 40 -41 -42 45 44 -45 -46 46 -48 48 -50
leaf_value=0.0052521503290076472 -0.011672714339159892 -0.0014271083025775881 -0.00097859323135292492 -0.0071253504809750687 0.0045301611157199844 0.0020962039277818106 -0.0024556393557676739 -0.00012379704272789409 0.0024980226069621263 -0.00061513047922419481 0.0063282552738855415 0.0028937795311915421 0.00067219413567296004 0.00068679338263017136 -0.00057936811032326043 -0.0018103359556831725 0.0013080438372519692 -0.00037147419792531497 -0.00095637382383041258 0.004687353339165555 0.0050130076150496292 -0.0025559568477415812 -0.00089224092278989027 -0.0013386577219086366 0.0014873003188763066 0.0025103148563295347 -0.00069346726741799608 -0.0019983988295210926 -1.2270697578420681e-05 0.0015826323383779663 -0.0048713478226381441 -0.0015216001665760977 0.0024100408952419214 -0.0012360247522889378 0.0007638419154322746 0.0020763037213575595 0.001187699462661345 0.00054682515069275496 0.0012094727406215208 0.00025883454349725582 -0.00087820856367360064 -8.0291043567266027e-06 0.00057246336406231268 0.0023342429446195486 -0.00054781110672144986 -0.0016852318349019351 -0.00066654712760142159 0.0014455042568643512 5.7695604903580665e-05
leaf_weight=24 28 22 101 22 35 71 79 21 33 22 23 37 29 43 81 36 191 90 43 28 29 24 117 25 51 35 407 43 558 20 20 83 38 25 25 29 33 343 36 69 22 132 222 20 143 86 294 63 100
leaf_count=24 28 22 101 22 35 71 79 21 33 22 23 37 29 43 81 36 191 90 43 28 29 24 117 25 51 35 407 43 558 20 20 83 38 25 25 29 33 343 36 69 22 132 222 20 143 86 294 63 100
internal_value=-1.52515e-06 -0.00723637 8.6126e-05 0.000643666 0.000863854 0.00132671 8.05862e-05 0.00107606 0.00293457 0.00219052 0.00413311 -0.000509958 0.000373869 -0.00132384 0.000694914 0.0003669 -5.12586e-05 0.000290336 -0.00030754 0.000818457 0.00164478 0.000854932 0.000455447 -0.000191786 0.00051775 0.00066124 -0.000197736 -0.000881694 7.56727e-05 0.00365959 -0.00101467 -0.00160177 0.000380494 0.000882087 -0.000964593 0.000384092 0 0.000197278 -0.000458183 0.000828806 0.00036581 -0.000410115 -0.000231839 -0.000544117 0.000125315 -0.000679927 -0.000905367 0.000250955 0.000613039
internal_weight=4151 50 4101 815 793 496 297 461 77 66 56 231 109 122 384 313 3286 980 457 523 157 128 366 100 76 277 2306 72 1002 44 204 128 242 161 108 123 76 901 175 98 58 1304 792 427 365 512 380 253 163
internal_count=4151 50 4101 815 793 496 297 461 77 66 56 231 109 122 384 313 3286 980 457 523 157 128 366 100 76 277 2306 72 1002 44 204 128 242 161 108 123 76 901 175 98 58 1304 792 427 365 512 380 253 163
is_linear=0
shrinkage=0.03


Tree=6
num_leaves=50
num_cat=0
split_feature=2 4 16 2 16 2 16 2 0 0 2 2 15 2 0 2 2 2 0 0 2 2 16 4 16 2 0 2 15 2 0 4 16 4 4 16 2 16 4 0 4 2 4 4 16 16 4 4 16
split_gain=2.77655 1.37189 0.330836 1.43945 0.296148 0.398064 0.392272 0.329681 0.789559 0.329473 0.295395 0.218634 0.176643 0.206453 0.135147 0.298074 0.205942 0.140115 0.390785 0.27881 0.312408 0.167071 0.138895 0.129515 0.127697 0.399065 0.314823 0.124799 0.160259 0.118805 0.0897329 0.085109 0.073778 0.067626 0.0667147 0.111283 0.0635762 0.0577422 0.0674201 0.0653294 0.057632 0.102456 0.0528917 0.0821162 0.164998 0.0469652 0.0459313 0.0451065 0.0512325
threshold=2.989579894530872 0.18706264990972907 -0.11895922524337639 1.570827463879964 -1.3674412031133263 -1.3645525069030755 -4.0439679974353622 -0.24061855727962445 -1.5701721733332088 0.91229460145592689 -1.1890132776858984 0.18595232377410967 -0.63539978768600747 -0.4487597774336432 2.1513554775697887 1.8104901758383256 2.4610754560058763 0.043051433719715357 0.67569048966910361 -0.077494332831368418 1.1195699790321141 -0.86564159218783077 0.3430114810384558 0.57941141215206138 -2.1129370165158701 -0.92458900572654268 -1.2769458798686106 -1.1018384087703073 -0.45847144077536633 -3.4780115527008797 -0.21641335883911333 0.0016241611893350158 0.31679107061852912 0.089709860327350108 -0.21951519734742547 0.50518109362186159 -0.75375114547999211 0.76958193504703754 -0.056851175964226085 0.28779840232588816 0.12105795935664433 -0.57753834426371997 0.23488608543788825 0.15715620319583615 0.60783442969223678 0.5631923244437399 0.1743777087888361 -0.34120188672685642 0.21097695775764194
decision_type=2 2 2 2 2 2 2 2 2 2 2 2 2 2 2 2 2 2 2 2 2 2 2 2 2 2 2 2 2 2 2 2 2 2 2 2 2 2 2 2 2 2 2 2 2 2 2 2 2
left_child=2 -2 3 4 6 -6 10 12 -9 24 23 -10 36 27 16 -16 17 18 21 20 46 -4 -20 -1 29 -26 -27 -14 -29 -8 47 -31 40 -24 35 -21 -7 38 39 -34 41 -32 43 -36 -45 -44 -19 -23 -49
right_child=1 -3 14 -5 5 7 9 8 11 -11 -12 -13 13 -15 15 -17 -18 19 22 34 -22 30 33 -25 25 26 -28 28 -30 31 32 -33 37 -35 42 -37 -38 -39 -40 -41 -42 -43 45 44 -46 -47 -48 48 -50
leaf_value=0.0050952396177033664 -0.0020930689937253104 -0.012206070398625866 -0.0023912523799286831 -0.0069125572315573156 0.0043946434650719403 0.0011417681641747535 0.00011317319596931143 -0.0021723059361883948 0.0027768817263987763 0.001990948364095729 -0.00059676009529518862 0.0067737896290832548 -0.00046556097147464976 -0.001756176295692818 -0.00012482809571855554 0.0043405639618954881 -0.0026355102859782153 -4.8480335007416607e-05 0.0031400924930325173 -0.00068792822653020939 0.0021932246806877272 0.00094659548242116112 0.0019818881457550515 0.0015353896156120206 -0.0023094810680420364 -0.00052334686421525117 0.0046743668777061926 -0.0010928310844978502 0.0013266065973230263 -0.00091195755358283313 0.0019785443067265804 -0.0029321617459406642 0.00018733750380455367 0.00042952852654861101 -0.00058948624774890967 0.0022329812412977268 0.0031444688703697724 0.0006473737881571291 -0.000262338616788895 0.002023864462803122 0 0.0002708127657829041 0.00098014723225280098 -0.0036733428201085301 -0.00076107542691868568 -0.0003638304222795207 0.0013809469434922623 -0.00071807516913387562 -0.00010280199414143811
leaf_weight=24 26 24 26 22 35 41 24 20 31 39 22 26 66 36 37 20 28 476 39 26 67 26 43 20 37 20 20 27 184 37 63 54 108 78 718 20 30 127 395 22 62 73 30 25 72 102 21 186 396
leaf_count=24 26 24 26 22 35 41 24 20 31 39 22 26 66 36 37 20 28 476 39 26 67 26 43 20 37 20 20 27 184 37 63 54 108 78 718 20 30 127 395 22 62 73 30 25 72 102 21 186 396
internal_value=-1.45238e-06 -0.00702186 8.35791e-05 0.000624863 0.0008386 0.00128757 7.85323e-05 0.00104426 0.00284687 -0.000493883 0.00212509 0.00466124 0.000674346 0.000355928 -4.97732e-05 0.00139429 -7.62361e-05 -5.28306e-05 0.000139142 -0.000257453 0.000271622 -1.07675e-05 0.00154743 0.0035523 -0.001015 -2.91342e-05 0.00200587 0.000641786 0.00100243 -0.00164845 2.97865e-05 -0.00214559 0.000230654 0.00100715 -0.000560972 0.000519045 0.00203341 7.14765e-05 -6.22194e-05 0.00052251 0.000739371 0.00108481 -0.00061665 -0.000707134 -0.00154557 -3.51601e-05 6.14865e-06 -0.00024609 -0.000304679
internal_weight=4151 50 4101 815 793 496 297 461 77 231 66 57 384 313 3286 57 3229 3201 1644 1557 564 1484 160 44 192 77 40 277 211 115 1458 91 850 121 993 46 71 652 525 130 198 136 947 815 97 132 497 608 582
internal_count=4151 50 4101 815 793 496 297 461 77 231 66 57 384 313 3286 57 3229 3201 1644 1557 564 1484 160 44 192 77 40 277 211 115 1458 91 850 121 993 46 71 652 525 130 198 136 947 815 97 132 497 608 582
is_linear=0
shrinkage=0.03


Tree=7
num_leaves=50
num_cat=0
split_feature=2 1 2 0 1 1 0 2 3 2 0 2 2 4 3 1 2 1 1 3 3 1 4 0 1 4 2 4 3 4 2 2 3 1 0 3 2 15 15 4 4 2 3 2 2 4 2 4 3
split_gain=2.61451 1.3105 0.307412 0.316613 0.294472 0.186854 0.390673 0.265943 0.439167 0.242791 0.362345 0.431164 0.193926 0.177449 0.265514 0.148152 0.399407 0.270784 0.494577 0.194551 0.149317 0.143637 0.126858 0.149935 0.126031 0.108022 0.10368 0.100265 0.0889504 0.129573 0.0760792 0.0785991 0.0748178 0.0735746 0.100861 0.114445 0.100782 0.0827684 0.0792204 0.0735385 0.0731407 0.0931352 0.0729982 0.0702377 0.0587655 0.0556782 0.0643526 0.0540349 0.150998
threshold=2.989579894530872 1.8442099819012518 -0.28229978438730097 0.92969681101462975 -1.4837060714011352 0.48670292641300611 -0.072665892581934663 1.570827463879964 -0.12577355937178528 0.25983412950158408 2.1513554775697887 2.3664792883087626 1.8104901758383256 -0.02885346419465001 -0.93185601094347981 -1.8614454685410873 -1.2985257314444547 0.1467059764062538 -0.60361665536889075 -0.44709420146517836 -0.43756262563325099 -0.024828362007038852 -0.4301354459260513 -1.2013980649399125 0.66623112685206887 -0.19894560530751262 0.82070086343769189 -0.13652536896329817 2.0405844208119102 0.14134348817101902 -0.4239532366849193 -1.1018384087703073 1.5027075118725428 -1.1043552945139594 -0.25034956028990002 -1.1073673133624509 -0.98646184760334099 -0.63539978768600747 0.92246612648830673 -0.19631084539805732 -0.31096968833980304 -1.01223376461346 0.6260466071018459 -0.59694259368777103 0.98256845820277905 0.02499554602030735 -0.79682006373892944 0.15715620319583615 1.1170836153661019
decision_type=2 2 2 2 2 2 2 2 2 2 2 2 2 2 2 2 2 2 2 2 2 2 2 2 2 2 2 2 2 2 2 2 2 2 2 2 2 2 2 2 2 2 2 2 2 2 2 2 2
left_child=2 -2 3 15 -4 7 13 22 -9 32 11 28 -12 14 -7 19 17 18 20 27 -17 33 23 -6 30 -24 -15 -1 29 39 31 -5 42 40 35 37 -36 -35 -39 -11 -18 -42 -8 -33 -31 46 -23 -27 -49
right_child=1 -3 4 24 5 6 9 8 -10 10 12 -13 -14 26 -16 16 21 -19 -20 -21 -22 45 25 -25 -26 47 -28 -29 -30 44 -32 43 -34 34 36 -37 -38 38 -40 -41 41 -43 -44 -45 -46 -47 -48 48 -50
leaf_value=-0.0011167849078440512 -0.011120852116376055 -0.0011709722489270285 0.0033150970654739105 0.0012369329437835893 -0.00021914283321662381 0.003259322928186877 0.00025265539650335295 -0.0057908119981605298 0 0.00048784255151055716 0.00030674046450489202 -0.0044361205277723909 0.0042109949355805983 0.0016180645001470635 0 0.0026648377292953864 -0.00078317765380378078 -0.00043545197008394726 0.0066754415868358176 -0.0028150612535703793 -0.0001367473475827502 -0.00018486954084138816 -0.001072388663804035 0.0032188670843172427 0 -0.00015114826972879871 0.00490443910513796 0.0015481138556631671 -0.0023376608180946533 0 0.00073889501966641969 0.0050514693209877254 -0.00055609228117298637 0.001864137136571265 0.0019017861192941526 -0.00069977087497498564 0.00014169944083003894 -0.00034560110031867699 0.0015849473258456237 -0.00086420582593491155 -0.00029339751929212578 0.0015928693147265506 0.0015489564608610082 0.0022409318124442866 0.0016585251159539497 0.00033454630354870664 0.0015280021905527518 -0.001406505143855029 0.00013354504002890879
leaf_weight=25 28 22 22 20 23 31 75 21 26 39 31 27 20 22 80 39 22 28 23 31 27 20 158 20 21 1164 20 25 23 49 21 23 30 25 32 304 417 111 23 260 30 79 99 21 32 120 119 118 105
leaf_count=25 28 22 22 20 23 31 75 21 26 39 31 27 20 22 80 39 22 28 23 31 27 20 158 20 21 1164 20 25 23 49 21 23 30 25 32 304 417 111 23 260 30 79 99 21 32 120 119 118 105
internal_value=-1.36715e-06 -0.00681386 8.11244e-05 0.000405299 -0.000126348 -0.000158309 0.000203675 -0.000345676 -0.00257502 -9.84062e-05 -0.000470081 -0.000758745 0.00190177 0.00157491 0.00090711 0.00029091 0.000363693 0.00204488 0.0028585 -0.000946018 0.00147488 0.000210168 -0.000277647 0.00131408 0.00199394 -0.000323972 0.0032622 0.000156215 -0.000503889 -0.000384419 0.00250794 0.00303955 0.000763046 5.00548e-05 -4.23685e-05 -0.000355851 0.000274215 0.000282878 0 -0.000677717 0.000715915 0.00104642 0.0010079 0.00378623 0.000660761 0.000843104 0.00126002 -0.000236482 -0.000668188
internal_weight=4151 50 4101 1606 2495 2473 838 1635 47 685 481 430 51 153 111 1500 1419 117 89 81 66 1302 1588 43 106 1545 42 50 403 380 85 64 204 1043 912 463 449 159 134 299 131 109 174 44 81 259 139 1387 223
internal_count=4151 50 4101 1606 2495 2473 838 1635 47 685 481 430 51 153 111 1500 1419 117 89 81 66 1302 1588 43 106 1545 42 50 403 380 85 64 204 1043 912 463 449 159 134 299 131 109 174 44 81 259 139 1387 223
is_linear=0
shrinkage=0.03


Tree=8
num_leaves=50
num_cat=0
split_feature=2 4 16 2 16 16 2 2 0 0 2 2 1 16 2 0 1 16 16 16 2 16 2 4 2 2 0 2 4 16 2 0 2 1 2 4 2 2 0 16 2 4 4 1 16 4 0 16 4
split_gain=2.46198 1.29431 0.295442 1.30578 0.276534 0.364122 0.356144 0.311366 0.73955 0.300615 0.273864 0.207302 0.162604 0.301112 0.180367 0.164395 0.178459 0.205792 0.155138 0.222038 0.261898 0.26102 0.192449 0.162802 0.167703 0.130355 0.172426 0.154314 0.119614 0.115123 0.367532 0.292572 0.107654 0.0943304 0.0796515 0.0785318 0.0765202 0.093351 0.132438 0.0757577 0.0691511 0.151195 0.0637232 0.0629575 0.09417 0.0981224 0.0835321 0.0785024 0.0670076
threshold=2.989579894530872 0.18706264990972907 -0.11895922524337639 1.570827463879964 -1.3674412031133263 -4.0439679974353622 -1.3645525069030755 -0.24061855727962445 -1.5701721733332088 0.91229460145592689 -1.1890132776858984 0.18595232377410967 0.38865004772305989 0.73065008157754507 0.64296565849693532 0.33117264336564783 1.6589007821509008 0.77675509646109486 0.10497022976479771 0.48090489538548581 0.96318660226677177 0.3285765014307877 -0.0082074654359790781 0.27197656999850134 2.2100568452260809 -0.210216148636959 0.92969681101462975 -0.86564159218783077 0.57941141215206138 -2.1129370165158701 -0.92458900572654268 -1.2769458798686106 -3.4780115527008797 -0.78828877431924216 -0.70047566167687614 0.0016241611893350158 -1.1018384087703073 -0.4487597774336432 -0.86865720136125724 0.69443773264234931 0.19174168180314996 -0.21951519734742547 0.068206220520325808 -0.0054202437352884958 0.51284311764724422 0.19751052729024018 0.41481460991556479 0.57463244417369841 -0.048332405293016342
decision_type=2 2 2 2 2 2 2 2 2 2 2 2 2 2 2 2 2 2 2 2 2 2 2 2 2 2 2 2 2 2 2 2 2 2 2 2 2 2 2 2 2 2 2 2 2 2 2 2 2
left_child=2 -2 3 4 5 10 -6 36 -9 29 28 -10 25 18 -15 -16 17 -17 -14 20 22 -22 -20 24 40 26 27 -4 -1 32 -31 -32 -7 -29 -35 -34 -8 -38 -39 -36 -21 -42 -18 44 45 -27 -46 -45 -49
right_child=1 -3 12 -5 6 9 7 8 11 -11 -12 -13 13 14 15 16 42 -19 19 23 21 -23 -24 -25 -26 43 -28 33 -30 30 31 -33 35 34 39 -37 37 38 -40 -41 41 -43 -44 47 46 -47 -48 48 -50
leaf_value=0.0048912298006944634 -0.0018239732945188021 -0.01164540950668767 -0.0022743472018300543 -0.0065879332823720986 0.0041685381940860522 7.8205693087103877e-05 -0.00015661321079867723 -0.0021053639207202104 0.0026675005568568728 0.0018800882169562377 -0.0005850881604873891 0.0065637609970638118 -0.0012824062016046917 0.00024338791914199046 0.00058283166644727065 -0.0047642171816785614 -0.00083035236643837988 -0.0013809038177705502 0.0024991079208653739 0.001011775505382391 0.0015769363101091733 0.0060507023532862785 -0.00027460917260009365 0.00249860326351536 -0.002362610303602223 -0.00063262894354622595 0.0023448320802723619 -0.00084850079767430527 0.0014603957632528756 -0.0022405427474669125 -0.00053438307634040495 0.0044738731028706727 -0.0008749573321566185 0.00097559485299633588 -2.9971955015887188e-05 -0.0028214138998028555 0.0010701204213850286 -0.0020601186896273987 0.0012677161768078803 0.0010450914167499754 0.0018728062532134787 -0.00034375909561285554 0.0014753542975227195 0 0.00029701073571498915 0.0012667505746981891 -0.0011963604660227773 -0.0016238521746739436 -0.00063182433776903248
leaf_weight=24 26 24 26 22 35 24 80 20 31 39 22 26 30 253 46 21 22 95 38 120 29 23 51 33 20 402 29 91 20 37 20 20 37 97 695 54 262 22 20 64 34 145 20 132 328 25 37 86 294
leaf_count=24 26 24 26 22 35 24 80 20 31 39 22 26 30 253 46 21 22 95 38 120 29 23 51 33 20 402 29 91 20 37 20 20 37 97 695 54 262 22 20 64 34 145 20 132 328 25 37 86 294
internal_value=-1.16999e-06 -0.00661198 7.88577e-05 0.000590385 0.00079412 5.94364e-05 0.00122789 0.000997272 0.0027491 -0.000491751 0.0020318 0.00450566 -4.71135e-05 0.000275361 -0.000282378 -0.00094893 -0.00141395 -0.00202282 0.000768411 0.000899526 0.00191243 0.00362111 0.00087748 0.000484842 0.000266402 -0.000185465 6.93173e-05 0 0.00340663 -0.000989875 -5.11075e-05 0.00189984 -0.00159179 6.39729e-05 0.000164569 -0.00206476 0.000637559 0.000856399 -0.000404929 5.68527e-05 0.000453017 6.13247e-05 0.000197241 -0.000383531 -0.000210226 -0.000514129 0.000137125 -0.000645661 -0.000864597
internal_weight=4151 50 4101 815 793 297 496 461 77 231 66 57 3286 980 457 204 158 116 523 493 141 52 89 352 319 2306 1002 973 44 192 77 40 115 947 856 91 384 304 42 759 299 179 42 1304 792 427 365 512 380
internal_count=4151 50 4101 815 793 297 496 461 77 231 66 57 3286 980 457 204 158 116 523 493 141 52 89 352 319 2306 1002 973 44 192 77 40 115 947 856 91 384 304 42 759 299 179 42 1304 792 427 365 512 380
is_linear=0
shrinkage=0.03


Tree=9
num_leaves=50
num_cat=0
split_feature=2 1 16 2 16 16 2 2 0 0 2 2 15 2 1 16 2 0 1 16 16 16 2 2 0 4 4 2 0 2 4 2 15 16 2 0 2 1 2 4 16 4 2 2 0 4 1 16 4
split_gain=2.31833 1.23631 0.278019 1.22909 0.260268 0.342688 0.334926 0.292921 0.696888 0.283076 0.258406 0.194231 0.163736 0.183527 0.153126 0.28341 0.169784 0.154976 0.168023 0.193316 0.146197 0.208995 0.248979 0.214014 0.194745 0.153161 0.159766 0.122707 0.162284 0.145215 0.111912 0.1111 0.147754 0.108151 0.345524 0.275732 0.101704 0.0887741 0.0749375 0.0734969 0.0712981 0.0634044 0.132954 0.10696 0.0622424 0.0600129 0.0592844 0.0885157 0.0924382
threshold=2.989579894530872 1.8442099819012518 -0.11895922524337639 1.570827463879964 -1.3674412031133263 -4.0439679974353622 -1.3645525069030755 -0.24061855727962445 -1.5701721733332088 0.91229460145592689 -1.1890132776858984 0.18595232377410967 -0.63539978768600747 -0.4487597774336432 0.38865004772305989 0.73065008157754507 0.64296565849693532 0.33117264336564783 1.6589007821509008 0.77675509646109486 0.10497022976479771 0.48090489538548581 0.82070086343769189 -0.0082074654359790781 1.0000000180025095e-35 0.27197656999850134 0.15715620319583615 -0.210216148636959 0.92969681101462975 -0.86564159218783077 0.57941141215206138 -1.1018384087703073 -0.45847144077536633 -2.1129370165158701 -0.92458900572654268 -1.2769458798686106 -3.4780115527008797 -0.78828877431924216 -0.70047566167687614 0.0016241611893350158 0.69443773264234931 -0.21951519734742547 0.19174168180314996 0.8925656795014113 0.30580987147793282 0.068206220520325808 -0.0054202437352884958 0.51284311764724422 0.19751052729024018
decision_type=2 2 2 2 2 2 2 2 2 2 2 2 2 2 2 2 2 2 2 2 2 2 2 2 2 2 2 2 2 2 2 2 2 2 2 2 2 2 2 2 2 2 2 2 2 2 2 2 2
left_child=2 -2 3 4 5 10 -6 12 -9 33 30 -10 -8 31 27 20 44 -18 19 -19 -16 22 23 -22 -24 26 41 28 29 -4 -1 -14 -33 36 -35 -36 -7 -31 -39 -38 -40 43 -43 -23 -17 -20 47 48 -29
right_child=1 -3 14 -5 6 9 7 8 11 -11 -12 -13 13 -15 15 16 17 18 45 -21 21 25 24 -25 -26 -27 -28 46 -30 37 -32 32 -34 34 35 -37 39 38 40 -41 -42 42 -44 -45 -46 -47 -48 -49 -50
leaf_value=0.0047451017899013646 -0.010597577627045617 -0.00093487549751230018 -0.0022063781908477774 -0.0063911896758624322 0.0040438383121966801 7.5869266923393316e-05 0.0019261778526220331 -0.0020425172531004267 0.0025877328403294086 0.0018238298032347043 -0.00056761495878591257 0.0063676025949675457 -0.0004623241743436379 -0.0016795839582391886 -0.0012440618693185007 -0.00059349818714199399 0.00056538462438852953 -0.004621968117964087 -0.00080555451412293302 -0.0013395202549340423 0.0024243314285564608 0 0.0052888089305690288 -0.00059313236808036752 0.0016052835873197882 0.0024238716371447477 -0.0023074377958537699 -0.00061365479541648262 0.0022747288338993625 -0.0008230737083142727 0.0014168018935276055 -0.0010889989361029489 0.001234129952779141 -0.0021735076736809425 -0.00051843132698602644 0.0043403246238090986 -0.00084877938204106049 0.00094635714525519946 -2.9072923602780104e-05 -0.0027369279257200879 0.0010137875752259111 0.001096555451147341 -0.00030708016290056613 0.0028052012273945296 0.00050401807752044022 0.001431313838337117 -0.00062659744212843641 0.00013275712195209141 0.0012288994778437441
leaf_weight=24 28 22 26 22 35 24 71 20 31 39 22 26 66 36 30 59 46 21 22 95 38 23 27 45 31 33 20 402 29 91 20 27 184 37 20 20 37 97 695 54 64 99 152 25 194 20 512 365 25
leaf_count=24 28 22 26 22 35 24 71 20 31 39 22 26 66 36 30 59 46 21 22 95 38 23 27 45 31 33 20 402 29 91 20 27 184 37 20 20 37 97 695 54 64 99 152 25 194 20 512 365 25
internal_value=-1.14771e-06 -0.00641622 7.64888e-05 0.000572712 0.000770474 5.74082e-05 0.00119131 0.000967401 0.0026669 -0.000476999 0.00197111 0.00437256 0.000618199 0.000311398 -4.56862e-05 0.000267212 -0.000273741 -0.000920534 -0.0013722 -0.00196307 0.000745595 0.000872982 0.0018559 0.000753511 0.00337781 0.000470319 0.00025813 -0.000179968 6.71516e-05 0 0.00330691 0.000581493 0.000922271 -0.000960677 -4.95082e-05 0.0018409 -0.00154413 6.19623e-05 0.000159638 -0.00200392 5.50325e-05 0.000440484 0.000234814 0.00145087 0.000236089 0.000189232 -0.000372146 -0.000203807 -0.00049849
internal_weight=4151 50 4101 815 793 297 496 461 77 231 66 57 384 313 3286 980 457 204 158 116 523 493 141 83 58 352 319 2306 1002 973 44 277 211 192 77 40 115 947 856 91 759 299 251 48 253 42 1304 792 427
internal_count=4151 50 4101 815 793 297 496 461 77 231 66 57 384 313 3286 980 457 204 158 116 523 493 141 83 58 352 319 2306 1002 973 44 277 211 192 77 40 115 947 856 91 759 299 251 48 253 42 1304 792 427
is_linear=0
shrinkage=0.03


Tree=10
num_leaves=50
num_cat=0
split_feature=0 3 16 16 0 16 1 1 16 0 1 3 4 16 3 0 4 3 1 3 3 16 16 4 0 1 4 4 3 16 16 3 0 16 16 0 1 4 16 4 0 1 16 1 1 3 1 4 3
split_gain=0.482156 0.672734 0.361339 0.176817 0.383575 0.37436 0.284975 0.284359 0.278959 0.188458 0.168691 0.401853 0.134014 0.227904 0.267506 0.255383 0.232864 0.127349 0.125139 0.242311 0.117861 0.110713 0.175995 0.438813 0.107247 0.101485 0.100272 0.142345 0.0987889 0.0946036 0.0832974 0.166038 0.0765098 0.190297 0.0744558 0.0714991 0.0696049 0.0838987 0.0787451 0.0978026 0.069353 0.0658793 0.0655664 0.0645816 0.0627304 0.0590954 0.077507 0.0771317 0.0587806
threshold=2.5771715728620745 1.5674448246417991 -4.0439679974353622 -0.11895922524337639 1.0000000180025095e-35 -1.9520556132116444 0.59859831420581566 -0.28905255079134107 -1.3674412031133263 0.75453327433158346 -0.68866406044159112 -0.094413132669950925 0.18338350385010627 0.5631923244437399 1.1335314467604352 0.89470124833785458 0.4086249345087124 -0.78162777245741999 0.27758942163821748 -0.9781784562522321 0.8891232846337308 0.072200565514202106 0.47780753220399064 -0.018544720784500698 0.84743572689021707 0.74127090394034723 0.24321334172693618 0.61215615240934118 0.72765374635117663 0.61314521430468794 -0.20159940970005208 -0.6866708845507411 -0.73508593184062632 -0.67958187228992928 0.3285765014307877 0.45492659172448047 1.6154646197037617 0.015804319893200792 0.82804159527019172 0.039224275077731609 0.24535259273510399 0.96789880986621457 -0.60096091304184429 0.63907598249335262 -1.0776536385611939 0.59021205486276951 0.80425133499820189 0.017175125926625453 -1.1293338725763469
decision_type=2 2 2 2 2 2 2 2 2 2 2 2 2 2 2 2 2 2 2 2 2 2 2 2 2 2 2 2 2 2 2 2 2 2 2 2 2 2 2 2 2 2 2 2 2 2 2 2 2
left_child=2 -2 26 4 8 9 7 20 48 -6 17 30 18 28 15 29 41 32 24 25 -7 -21 23 34 -5 -20 -1 -28 40 -15 31 42 33 -10 -23 -31 38 -38 45 -40 -14 43 -12 -16 -19 -24 -47 -48 -4
right_child=1 -3 3 12 5 6 -8 -9 10 -11 11 -13 13 14 16 -17 -18 44 19 21 -22 22 36 -25 -26 -27 27 -29 -30 35 -32 -33 -34 -35 -36 -37 37 -39 39 -41 -42 -43 -44 -45 -46 46 47 -49 -50
leaf_value=0.00062659314562088888 0.00026135777298539768 -0.0065329082716880475 -3.8525799740102092e-05 -0.00017695684473734358 -0.0019039046606808628 0.001165905042472111 -0.00059576572439468958 0.0052827255620551492 0.0030278530086635461 0.0011429355984383571 -0.0014262074790232903 0.0029793642627662701 0 -0.0032880118203266005 2.8784973259262988e-05 -0.0052852386486720781 -0.0032092508335005146 0.00082481819562183368 0.0010724562785657079 -0.0017190184587839562 0.0038393142522469927 -0.0012528609952170489 -0.00014403448441531631 0.0034043344329685379 0.0015911269676347538 0.0040104974305896612 0.0049274078781288378 0.0011864365289490934 0.00081621080852833743 0.00055827770270963206 0 0 0.0029690257601183031 0.00031821140423691011 0.00061567063472664529 -0.0016277718523009382 0.00013069278381202038 0.0022376876000686106 0.00016007091249393643 -0.0012347460178829641 -0.0020042609334059427 0.0011846686395354938 -0.0039974558952758079 -0.0016316071790696558 -0.00054060158554077866 0.00095848470761311687 0.00055175049425898134 -0.0014243412108247188 -0.0015198420671607023
leaf_weight=27 27 24 37 1880 33 58 22 36 33 40 21 24 46 20 93 22 23 57 31 27 23 33 278 51 31 20 21 21 111 20 28 29 26 90 44 33 55 27 77 99 22 34 26 26 63 132 41 30 103
leaf_count=27 27 24 37 1880 33 58 22 36 33 40 21 24 46 20 93 22 23 57 31 27 23 33 278 51 31 20 21 21 111 20 28 29 26 90 44 33 55 27 77 99 22 34 26 26 63 132 41 30 103
internal_value=1.14932e-05 -0.00288376 4.80943e-05 1.06934e-05 0.000427511 0.00150768 0.00242248 0.00301566 0 -0.000194084 0.000406934 -0.000474442 -8.28424e-05 -0.000564051 -0.00111469 -0.00240327 -0.000401145 0.000837494 -5.95424e-06 0.000275322 0.00196581 0.000156853 0.000218922 0.00124624 -0.000146624 0.00228893 0.00219946 0.00313544 0.000253002 -0.00148765 -0.00130239 -0.00181809 0.00142444 0.00107143 -0.000146804 -0.000746852 3.67809e-05 0.000862881 -6.18745e-05 -0.000607733 -0.000622148 3.21446e-06 -0.00291776 -0.000309866 8.31404e-05 0.000131707 0.000523979 -0.000241853 -0.00115007
internal_weight=4175 51 4124 4055 749 212 139 117 537 73 397 128 3306 450 271 95 176 269 2856 945 81 894 867 128 1911 51 69 42 179 73 104 76 149 123 77 53 739 82 657 176 68 153 47 119 120 481 203 71 140
internal_count=4175 51 4124 4055 749 212 139 117 537 73 397 128 3306 450 271 95 176 269 2856 945 81 894 867 128 1911 51 69 42 179 73 104 76 149 123 77 53 739 82 657 176 68 153 47 119 120 481 203 71 140
is_linear=0
shrinkage=0.03


Tree=11
num_leaves=50
num_cat=0
split_feature=2 16 16 2 0 0 2 16 0 2 1 0 0 16 2 16 16 2 1 2 16 3 1 2 2 0 1 2 16 16 16 2 0 3 16 16 16 2 16 1 2 1 1 16 2 2 0 0 3
split_gain=2.24482 1.28608 0.327312 0.241166 0.346304 0.237987 0.483069 0.214709 0.221142 0.373462 0.297165 0.206902 0.254739 0.236456 0.254718 0.216163 0.215733 0.175952 0.162578 0.156298 0.149317 0.140895 0.13823 0.122085 0.11871 0.112207 0.147891 0.0966855 0.08814 0.214287 0.195691 0.113131 0.139897 0.133245 0.0803856 0.0734627 0.0678048 0.065345 0.0679209 0.0635606 0.132473 0.0624174 0.0577798 0.135474 0.083669 0.0614064 0.0594715 0.0576114 0.0572675
threshold=2.989579894530872 0.62012461807347596 -4.0439679974353622 0.33047385024114373 -1.3244163798539168 2.1513554775697887 2.4610754560058763 -0.08975625027064614 0.06699523540337006 0.8069703090106044 0.28442870439234696 0.11272787788888622 2.438870527640971 0.3430114810384558 -1.7852511358059635 -3.9393425227816032 -0.18012249357842278 -1.0422884563692167 -0.37825993476584091 -1.1890132776858984 0.43032691890117009 0.53926695229306609 0.39791667974966133 -0.98646184760334099 -0.86564159218783077 -1.357303200626786 -1.3145819101177258 1.8104901758383256 -0.98857144515879747 -1.5134704294238415 -0.50395856059031685 -0.31463999991874897 -0.86865720136125724 -1.3222746710573161 -0.98857144515879747 0.37766575341919623 -0.63575034374161754 0.01686611291227327 0.64046090890385432 1.366766724855297 1.8104901758383256 -1.7341593310253318 0.29864795769500779 0.19592773837733082 0.27393829410035958 -0.70047566167687614 -0.26341759219035482 0.47701252185667614 1.5027075118725428
decision_type=2 2 2 2 2 2 2 2 2 2 2 2 2 2 2 2 2 2 2 2 2 2 2 2 2 2 2 2 2 2 2 2 2 2 2 2 2 2 2 2 2 2 2 2 2 2 2 2 2
left_child=2 -2 19 11 -5 6 7 -6 9 35 -11 15 13 14 -13 -4 17 18 25 41 -12 34 37 -23 -18 -17 -27 -7 29 -19 -30 32 33 -32 -16 -9 -28 38 47 -10 -41 -1 44 -44 45 46 -26 -15 -40
right_child=1 -3 3 4 5 27 -8 8 39 10 20 12 -14 22 21 16 24 28 -20 -21 -22 23 -24 -25 42 26 36 -29 30 -31 31 -33 -34 -35 -36 -37 -38 -39 48 40 -42 -43 43 -45 -46 -47 -48 -49 -50
leaf_value=0.0017926199508032624 -0.0020122166262903111 -0.011988704655919736 -0.0017315370737375907 -0.0038836281177784889 0.0020905158518113066 0.0004565261952964908 -0.0036530735573225368 -0.0010764884339792718 -0.0008331984233782688 -0.00028965678768863671 0.0046289760426876034 -0.00079249125716852984 -0.0025553146444938393 -0.00085014987589677332 0.0022867186778716964 0.0010088656999733903 -0.001939785319479284 0.0022000698239423365 0.001697563532061468 0 0.0017124871868708367 0.004508101544771906 0.00080587786268652918 0.0018819562033853088 -0.00019803459453558562 -0.0031113458660342319 0.00069698040472634406 0.0033851892719877286 0.0032562844440374035 -0.0019818188734584568 0.00083068792199351114 0.0030498938740634199 0.0015017744872201963 -0.0020537160240058747 0.00046630573234368117 -3.9135984957172745e-05 -0.001092190564532948 -0.00060210504725499877 0.00094872889635490439 -0.00061256491516088957 0.0019396537315115884 0.0043543864980146478 0.0028142677503290455 8.5867246070688832e-05 0.0011833122250736821 -0.00023336443311379782 0.0012724477496112467 0.00051829071831039698 -0.00023303265965557242
leaf_weight=23 28 21 62 24 35 25 38 91 460 48 25 44 23 75 30 30 31 21 37 23 60 21 282 122 43 24 30 21 45 23 29 20 66 27 106 209 47 133 120 76 24 23 20 103 42 1126 50 41 48
leaf_count=23 28 21 62 24 35 25 38 91 460 48 25 44 23 75 30 30 31 21 37 23 60 21 282 122 43 24 30 21 45 23 29 20 66 27 106 209 47 133 120 76 24 23 20 103 42 1126 50 41 48
internal_value=1.13094e-05 -0.00636466 8.79094e-05 5.22785e-05 -0.000317591 -0.000237587 -0.000331213 -0.000205159 -0.000289297 0.000214555 0.00154151 0.000197157 0.000535474 0.00060821 0.00128215 7.08456e-06 6.82541e-05 0.00068526 -3.62881e-05 0.00213638 0.00260996 0.00162025 0.000292357 0.00229146 -0.000103645 -0.000549807 -0.00104299 0.00186304 0.00122279 0 0.00150693 0.000929539 0.000555156 -0.000507713 0.000891295 -0.00036405 -0.000356201 -4.78332e-05 0.000201299 -0.000684208 0 0.00314525 -6.02126e-05 0.000555806 -0.000122718 -0.000170271 0.000560841 -0.000340607 0.000593298
internal_weight=4175 49 4126 4057 1136 1112 1066 1028 993 433 133 2921 1045 1022 323 1876 1814 399 168 69 85 279 699 143 1415 131 101 46 231 44 187 142 122 56 136 300 77 417 284 560 100 46 1384 123 1261 1219 93 116 168
internal_count=4175 49 4126 4057 1136 1112 1066 1028 993 433 133 2921 1045 1022 323 1876 1814 399 168 69 85 279 699 143 1415 131 101 46 231 44 187 142 122 56 136 300 77 417 284 560 100 46 1384 123 1261 1219 93 116 168
is_linear=0
shrinkage=0.03


Tree=12
num_leaves=50
num_cat=0
split_feature=2 16 16 2 0 4 4 0 2 16 0 2 1 16 16 1 1 2 1 1 2 16 16 2 1 4 2 15 16 16 0 3 4 3 1 2 1 16 1 1 16 3 1 2 1 2 2 0 16
split_gain=2.11409 1.20922 0.308746 0.227067 0.325884 0.291909 0.291175 0.255088 0.228912 0.208845 0.216999 0.399115 0.20694 0.194012 0.396028 0.224449 0.406079 0.26938 0.220142 0.169658 0.160851 0.154704 0.150939 0.146933 0.139594 0.134044 0.127011 0.126859 0.115083 0.170499 0.128701 0.122138 0.108248 0.103518 0.226958 0.0996018 0.0932927 0.0831101 0.081451 0.0875457 0.0790312 0.0753591 0.0684274 0.0943801 0.0683042 0.0671808 0.0649698 0.0599704 0.0591967
threshold=2.989579894530872 0.62012461807347596 -4.0439679974353622 0.33047385024114373 -1.3244163798539168 0.80710867602077319 0.4260817228282035 0.82629382226183579 2.4610754560058763 -0.08975625027064614 0.1891475119253645 1.0271760578556146 0.96789880986621457 -1.9520556132116444 -0.18012249357842278 -0.3959982007489477 0.17604213355154 -1.0422884563692167 0.39791667974966133 0.63907598249335262 -0.22220423674840842 -1.306468692981154 -0.72521755525180476 -1.1890132776858984 -0.024828362007038852 0.66364431837158211 -0.86564159218783077 -0.22198335305215941 -0.98857144515879747 -0.54511366188546495 -0.86865720136125724 -1.3222746710573161 -0.39596887903276573 -0.6498309197884572 1.176007126169796 -0.51494524172942191 -0.3458781870899858 0.27085555238298192 1.3251387364107232 0.65246671943416079 0.61006479662926605 1.5674448246417991 0.26196937938686887 0.67024553139491772 0.65246671943416079 1.8104901758383256 -0.79682006373892944 0.41481460991556479 0.31679107061852912
decision_type=2 2 2 2 2 2 2 2 2 2 2 2 2 2 2 2 2 2 2 2 2 2 2 2 2 2 2 2 2 2 2 2 2 2 2 2 2 2 2 2 2 2 2 2 2 2 2 2 2
left_child=2 -2 23 5 -5 7 8 13 9 -6 11 -11 -8 -4 15 17 -17 21 26 -13 28 -15 -23 25 46 -1 -16 -10 -19 -30 31 -31 -28 -21 -35 36 -34 -38 39 42 -40 -26 43 -12 -18 -42 -9 -45 -20
right_child=1 -3 3 4 6 -7 12 24 27 10 38 19 -14 14 18 16 44 20 48 33 -22 22 -24 -25 41 -27 32 -29 29 30 -32 -33 35 34 -36 -37 37 -39 40 -41 45 -43 -44 47 -46 -47 -48 -49 -50
leaf_value=0.0045074507611236351 -0.0019520649012986873 -0.011630747807499073 -0.0011385141794229238 -0.0037676027094118328 0.0020279790590513242 -0.0027402317515911648 0 0.003485907842869083 -0.00063068474903349631 -0.000328624125061136 -0.0022388027405167502 4.1632792889779228e-05 0.0043112108052677303 -0.0028171190192207902 -0.0018020575064843455 0.0049662730847198589 0.0017647525862571727 -0.00099451852862590131 0.0019043961463598752 0.0043030926444894303 0.0032484103513465141 0.001964163554982207 -0.00072380410873743354 0 0.0010310350830025081 0.0010004949569702147 0.0017729380321007443 -0.0040931083697286251 0.0035173968470607144 0.0010434912725054112 0.0015392720177966228 -0.0016830762441164438 -6.5716611026879761e-05 0.0033782759989544595 -0.00066512207681340945 -0.00022458188938396647 0.0017041051813319738 0.00028308761229072573 -0.0018102567654742453 -0.0016421808923505791 -0.00011838313124776984 -0.00028466593044113551 0 0.00056322094176793807 -0.0003762509173108821 0.0018034636474443845 0.0014533650526082683 -0.0011020153052228737 0.00058760507215139396
leaf_weight=26 28 21 103 24 35 30 20 27 21 417 43 40 21 21 39 34 25 23 38 23 33 26 67 23 133 20 28 22 25 29 82 29 228 29 20 1341 65 101 20 133 77 51 93 30 25 20 49 48 269
leaf_count=26 28 21 103 24 35 30 20 27 21 417 43 40 21 21 39 34 25 23 38 23 33 26 67 23 133 20 28 22 25 29 82 29 228 29 20 1341 65 101 20 133 77 51 93 30 25 20 49 48 269
internal_value=1.10821e-05 -0.00617641 8.54392e-05 5.08118e-05 -0.000308053 0.00019141 -0.000230357 0.000222963 -0.000327867 -0.000234815 -0.000317788 9.2498e-05 0.00223841 0.000133061 0.000186099 0.00102853 0.00242808 0.000668022 1.72689e-05 0.00168608 0.00128267 -0.000497316 0 0.00207499 0.00112077 0.00305324 -0.000107797 -0.00247715 0.000920125 0.00120563 0.000769181 -0.000268708 -6.85156e-05 0.00255673 0.00166882 -0.000100063 0.000316081 0.000858263 -0.000791934 -0.00102355 -7.91109e-05 0.000650105 -0.000624466 -0.00109452 0.000635756 0.000248427 0.00221851 -0.000423226 0.000760931
internal_weight=4175 49 4126 4057 1136 2921 1112 2891 1071 1028 993 529 41 2631 2528 419 84 335 2109 112 221 114 93 69 260 46 1802 43 188 165 140 58 1763 72 49 1735 394 166 464 347 117 184 214 121 50 97 76 78 307
internal_count=4175 49 4126 4057 1136 2921 1112 2891 1071 1028 993 529 41 2631 2528 419 84 335 2109 112 221 114 93 69 260 46 1802 43 188 165 140 58 1763 72 49 1735 394 166 464 347 117 184 214 121 50 97 76 78 307
is_linear=0
shrinkage=0.03


Tree=13
num_leaves=50
num_cat=0
split_feature=2 2 16 2 0 4 0 4 16 16 2 0 2 3 4 16 3 4 2 2 4 16 2 0 16 16 2 4 2 2 16 16 2 16 4 0 4 2 16 2 0 2 16 4 2 4 3 2 3
split_gain=1.99204 0.367532 0.287628 0.179987 0.290893 0.274775 0.240133 0.19182 0.182618 0.375005 0.236317 0.352797 0.207581 0.393293 0.158006 0.151445 0.14979 0.138503 0.206218 0.138121 0.125767 0.116225 0.113019 0.107664 0.178089 0.103603 0.100862 0.166372 0.163921 0.14803 0.0991888 0.0982753 0.133641 0.101801 0.184829 0.0934057 0.123569 0.0917225 0.0838517 0.0799058 0.0782674 0.0778687 0.0553202 0.0653958 0.0537043 0.0521399 0.0498361 0.0490726 0.0469039
threshold=3.415000320977668 2.7929686490561454 -4.0439679974353622 0.33047385024114373 -1.3244163798539168 0.80710867602077319 0.82629382226183579 0.4260817228282035 -1.9520556132116444 -0.23864111171929903 -0.47251711707464866 -0.56162286196778144 -1.3645525069030755 -0.36146918709928599 -0.39596887903276573 -1.2169757125426652 0.31727788002601442 -0.017485800673868738 0.98256845820277905 -1.1890132776858984 0.61215615240934118 -0.63575034374161754 -1.0724083174596071 2.0183515029006203 0.59092442244788224 -0.36699053636903184 1.9140194974238516 -0.24182237151611627 0.78764879886373185 1.389724846192647 -0.72521755525180476 0.48448354606381838 0.68367521145933308 0.60783442969223678 0.13512576194037626 0.088531364959220774 0.087776444558194597 -1.2581237415083188 0.50518109362186159 -0.79682006373892944 -0.86865720136125724 0.10048662276322408 0.36471147019923783 0.0098790677909688877 -0.49439900571201673 0.035550392288739824 0.66800523235277631 -0.069323512443845117 1.1170836153661019
decision_type=2 2 2 2 2 2 2 2 2 2 2 2 2 2 2 2 2 2 2 2 2 2 2 2 2 2 2 2 2 2 2 2 2 2 2 2 2 2 2 2 2 2 2 2 2 2 2 2 2
left_child=1 2 19 5 -5 6 8 16 44 10 12 21 13 -10 47 -14 17 26 38 20 -1 -12 30 24 37 -24 27 28 -6 -30 -17 32 -18 34 -33 -16 42 -8 -19 -39 -27 -38 -37 46 -4 -46 -44 -11 -35
right_child=-2 -3 3 4 7 -7 23 -9 9 14 11 -13 15 -15 35 22 31 18 -20 -21 -22 -23 25 -25 -26 40 -28 -29 29 -31 -32 33 -34 48 -36 36 41 39 -40 -41 -42 -43 43 -45 45 -47 -48 -49 -50
leaf_value=0.0044401346245016224 -0.0076781706453031831 -0.0029026753080988706 -0.00049234524978990408 -0.0036001136497437174 -0.00035972643586355336 -0.0026582978850855578 0.00031493916794682987 0.0019225036124937292 0.00020643432658673123 0.00057076759886608196 -0.00046157257787799875 0.0059496168015409981 -0.0017393554531800733 0.0057419615917241387 -0.00015368841559441362 0.001202317991383453 -0.0013194074533367749 -0.00072467299641378686 0.0029549000901222828 0 0.0010517026685284211 0.0026271951132370111 0.0017018038458282926 -0.000419578641356731 0.00048101994165248793 -0.0014285906994326123 -0.0017499589348116363 -0.00044952620189166816 0.0033477873498647054 0.00011535663636888209 -0.00094551787022643041 -0.00027451573045058676 0.0016465488810432749 -0.00088823267791521417 -0.0043240793259230557 0.0013955292313945194 2.5762106831068191e-05 0.0044531124436866434 0.00091132372453291231 0.0020623968036768297 0.00095733168304823848 -0.0012422837700727604 0.00042436137603860937 -3.9850067038167938e-05 -0.00069880279910458773 -0.0031218846058889997 0.0014910535294540314 0.002863832537845468 -0.00019211118573484172
leaf_weight=25 30 37 63 23 43 30 22 37 30 20 20 21 27 20 1386 28 21 46 33 23 21 21 96 34 117 20 35 271 33 24 59 24 36 250 20 71 269 20 69 67 32 51 132 138 20 20 65 22 153
leaf_count=25 30 37 63 23 43 30 22 37 30 20 20 21 27 20 1386 28 21 46 33 23 21 21 96 34 117 20 35 271 33 24 59 24 36 250 20 71 269 20 69 67 32 51 132 138 20 20 65 22 153
internal_value=1.07744e-05 6.73318e-05 9.48824e-05 6.12811e-05 -0.000261297 0.000185778 0.00021642 -0.000188105 0.000129154 0.000180642 0.0010576 0.00276478 0.000707961 0.00248757 2.69403e-05 0.000356076 -0.000264926 7.06908e-05 0.000860042 0.00201543 0.00296395 0.00105003 0.000610226 0.00108756 0.00132765 0.00111789 -0.000209807 -5.59927e-05 0.000979897 0.00204189 -0.00021923 -0.00063973 0.000500892 -0.000791968 -0.00218888 -7.92153e-06 0.000266212 0.00220765 0.0002308 0.00265091 0 -0.000167286 0.000615229 0.000440532 -0.00110439 -0.00198992 0.000792114 0.00184711 -0.000631504
internal_weight=4175 4145 4108 4039 1118 2921 2891 1095 2631 2528 374 62 312 50 2154 262 1058 554 148 69 46 41 235 260 226 148 406 371 100 57 87 504 57 447 44 2112 726 109 115 87 52 320 406 335 103 40 197 42 403
internal_count=4175 4145 4108 4039 1118 2921 2891 1095 2631 2528 374 62 312 50 2154 262 1058 554 148 69 46 41 235 260 226 148 406 371 100 57 87 504 57 447 44 2112 726 109 115 87 52 320 406 335 103 40 197 42 403
is_linear=0
shrinkage=0.03


end of trees

feature_importances:
momentum_6m=185
price_strength=137
momentum_3m=115
momentum_1m=94
macd_signal=88
rsi_14=51
volume_ratio=15
sentiment_score=1

parameters:
[boosting: gbdt]
[objective: regression]
[metric: l2]
[tree_learner: serial]
[device_type: cpu]
[data_sample_strategy: bagging]
[data: ]
[valid: ]
[num_iterations: 1500]
[learning_rate: 0.03]
[num_leaves: 50]
[num_threads: 4]
[seed: 42]
[deterministic: 0]
[force_col_wise: 0]
[force_row_wise: 0]
[histogram_pool_size: -1]
[max_depth: -1]
[min_data_in_leaf: 20]
[min_sum_hessian_in_leaf: 0.001]
[bagging_fraction: 0.8]
[pos_bagging_fraction: 1]
[neg_bagging_fraction: 1]
[bagging_freq: 5]
[bagging_seed: 400]
[bagging_by_query: 0]
[feature_fraction: 0.8]
[feature_fraction_bynode: 1]
[feature_fraction_seed: 30056]
[extra_trees: 0]
[extra_seed: 12879]
[early_stopping_round: 100]
[early_stopping_min_delta: 0]
[first_metric_only: 0]
[max_delta_step: 0]
[lambda_l1: 0.1]
[lambda_l2: 0.1]
[linear_lambda: 0]
[min_gain_to_split: 0]
[drop_rate: 0.1]
[max_drop: 50]
[skip_drop: 0.5]
[xgboost_dart_mode: 0]
[uniform_drop: 0]
[drop_seed: 17869]
[top_rate: 0.2]
[other_rate: 0.1]
[min_data_per_group: 100]
[max_cat_threshold: 32]
[cat_l2: 10]
[cat_smooth: 10]
[max_cat_to_onehot: 4]
[top_k: 20]
[monotone_constraints: ]
[monotone_constraints_method: basic]
[monotone_penalty: 0]
[feature_contri: ]
[forcedsplits_filename: ]
[refit_decay_rate: 0.9]
[cegb_tradeoff: 1]
[cegb_penalty_split: 0]
[cegb_penalty_feature_lazy: ]
[cegb_penalty_feature_coupled: ]
[path_smooth: 0]
[interaction_constraints: ]
[verbosity: -1]
[saved_feature_importance_type: 0]
[use_quantized_grad: 0]
[num_grad_quant_bins: 4]
[quant_train_renew_leaf: 0]
[stochastic_rounding: 1]
[linear_tree: 0]
[max_bin: 255]
[max_bin_by_feature: ]
[min_data_in_bin: 3]
[bin_construct_sample_cnt: 200000]
[data_random_seed: 175]
[is_enable_sparse: 1]
[enable_bundle: 1]
[use_missing: 1]
[zero_as_missing: 0]
[feature_pre_filter: 1]
[pre_partition: 0]
[two_round: 0]
[header: 0]
[label_column: ]
[weight_column: ]
[group_column: ]
[ignore_column: ]
[categorical_feature: ]
[forcedbins_filename: ]
[precise_float_parser: 0]
[parser_config_file: ]
[objective_seed: 16083]
[num_class: 1]
[is_unbalance: 0]
[scale_pos_weight: 1]
[sigmoid: 1]
[boost_from_average: 1]
[reg_sqrt: 0]
[alpha: 0.9]
[fair_c: 1]
[poisson_max_delta_step: 0.7]
[tweedie_variance_power: 1.5]
[lambdarank_truncation_level: 30]
[lambdarank_norm: 1]
[label_gain: ]
[lambdarank_position_bias_regularization: 0]
[eval_at: ]
[multi_error_top_k: 1]
[auc_mu_weights: ]
[num_machines: 1]
[local_listen_port: 12400]
[time_out: 120]
[machine_list_filename: ]
[machines: ]
[gpu_platform_id: -1]
[gpu_device_id: -1]
[gpu_use_dp: 0]
[num_gpu: 1]

end of parameters

pandas_categorical:[]
